Var1,Var2,Var3
36.05,-123.05,0
36.05,-122.95,0
36.05,-122.85,0
36.05,-122.75,0
36.05,-122.65,0
36.05,-122.55,0
36.05,-122.45,0
36.05,-122.35,0
36.05,-122.25,0
36.05,-122.15,0
36.05,-122.05,0
36.05,-121.95,0
36.05,-121.85,0
36.05,-121.75,0
36.05,-121.65,0
36.05,-121.55,0
36.05,-121.45,0
36.05,-121.35,0
36.05,-121.25,0
36.05,-121.15,0
36.05,-121.05,0
36.05,-120.95,0
36.05,-120.85,0
36.05,-120.75,0
36.05,-120.65,0
36.05,-120.55,0
36.05,-120.45,0
36.05,-120.35,0
36.05,-120.25,0
36.05,-120.15,0
36.05,-120.05,0
36.05,-119.95,0
36.05,-119.85,0
36.05,-119.75,0
36.05,-119.65,0
36.05,-119.55,0
36.05,-119.45,0
36.05,-119.35,0
36.05,-119.25,0
36.05,-119.15,0
36.05,-119.05,0
36.05,-118.95,0
36.05,-118.85,0
36.05,-118.75,0
36.05,-118.65,0
36.05,-118.55,0
36.05,-118.45,0
36.05,-118.35,0
36.05,-118.25,0
36.05,-118.15,0
36.05,-118.05,0
36.15,-123.05,0
36.15,-122.95,0
36.15,-122.85,0
36.15,-122.75,0
36.15,-122.65,0
36.15,-122.55,0
36.15,-122.45,0
36.15,-122.35,0
36.15,-122.25,0
36.15,-122.15,0
36.15,-122.05,0
36.15,-121.95,0
36.15,-121.85,0
36.15,-121.75,0
36.15,-121.65,0
36.15,-121.55,0
36.15,-121.45,0
36.15,-121.35,0
36.15,-121.25,0
36.15,-121.15,0
36.15,-121.05,0
36.15,-120.95,0
36.15,-120.85,0
36.15,-120.75,0
36.15,-120.65,0
36.15,-120.55,0
36.15,-120.45,0
36.15,-120.35,0
36.15,-120.25,0
36.15,-120.15,0
36.15,-120.05,0
36.15,-119.95,0
36.15,-119.85,0
36.15,-119.75,0
36.15,-119.65,0
36.15,-119.55,0
36.15,-119.45,0
36.15,-119.35,0
36.15,-119.25,0
36.15,-119.15,0
36.15,-119.05,0
36.15,-118.95,0
36.15,-118.85,0
36.15,-118.75,0
36.15,-118.65,0
36.15,-118.55,0
36.15,-118.45,0
36.15,-118.35,0
36.15,-118.25,0
36.15,-118.15,0
36.15,-118.05,0
36.25,-123.05,0
36.25,-122.95,0
36.25,-122.85,0
36.25,-122.75,0
36.25,-122.65,0
36.25,-122.55,0
36.25,-122.45,0
36.25,-122.35,0
36.25,-122.25,0
36.25,-122.15,0
36.25,-122.05,0
36.25,-121.95,0
36.25,-121.85,0
36.25,-121.75,0
36.25,-121.65,0
36.25,-121.55,0
36.25,-121.45,0
36.25,-121.35,0
36.25,-121.25,0
36.25,-121.15,0
36.25,-121.05,0
36.25,-120.95,0
36.25,-120.85,0
36.25,-120.75,0
36.25,-120.65,0
36.25,-120.55,0
36.25,-120.45,0
36.25,-120.35,0
36.25,-120.25,0
36.25,-120.15,0
36.25,-120.05,0
36.25,-119.95,0
36.25,-119.85,0
36.25,-119.75,0
36.25,-119.65,0
36.25,-119.55,0
36.25,-119.45,0
36.25,-119.35,0
36.25,-119.25,0
36.25,-119.15,0
36.25,-119.05,0
36.25,-118.95,0
36.25,-118.85,0
36.25,-118.75,0
36.25,-118.65,0
36.25,-118.55,0
36.25,-118.45,0
36.25,-118.35,0
36.25,-118.25,0
36.25,-118.15,0
36.25,-118.05,0
36.35,-123.05,0
36.35,-122.95,0
36.35,-122.85,0
36.35,-122.75,0
36.35,-122.65,0
36.35,-122.55,0
36.35,-122.45,0
36.35,-122.35,0
36.35,-122.25,0
36.35,-122.15,0
36.35,-122.05,0
36.35,-121.95,0
36.35,-121.85,0
36.35,-121.75,0
36.35,-121.65,0
36.35,-121.55,0
36.35,-121.45,0
36.35,-121.35,0
36.35,-121.25,0
36.35,-121.15,0
36.35,-121.05,0
36.35,-120.95,0
36.35,-120.85,0
36.35,-120.75,0
36.35,-120.65,0
36.35,-120.55,0
36.35,-120.45,0
36.35,-120.35,0
36.35,-120.25,0
36.35,-120.15,0
36.35,-120.05,0
36.35,-119.95,0
36.35,-119.85,0
36.35,-119.75,0
36.35,-119.65,0
36.35,-119.55,0
36.35,-119.45,0
36.35,-119.35,0
36.35,-119.25,0
36.35,-119.15,0
36.35,-119.05,0
36.35,-118.95,0
36.35,-118.85,0
36.35,-118.75,0
36.35,-118.65,0
36.35,-118.55,0
36.35,-118.45,0
36.35,-118.35,0
36.35,-118.25,0
36.35,-118.15,0
36.35,-118.05,0
36.45,-123.05,0
36.45,-122.95,0
36.45,-122.85,0
36.45,-122.75,0
36.45,-122.65,0
36.45,-122.55,0
36.45,-122.45,0
36.45,-122.35,0
36.45,-122.25,0
36.45,-122.15,0
36.45,-122.05,0
36.45,-121.95,0
36.45,-121.85,0
36.45,-121.75,0
36.45,-121.65,0
36.45,-121.55,0
36.45,-121.45,0
36.45,-121.35,0
36.45,-121.25,0
36.45,-121.15,0
36.45,-121.05,0
36.45,-120.95,0
36.45,-120.85,0
36.45,-120.75,0
36.45,-120.65,0
36.45,-120.55,0
36.45,-120.45,0
36.45,-120.35,0
36.45,-120.25,0
36.45,-120.15,0
36.45,-120.05,112965.687581988
36.45,-119.95,53379.3908354447
36.45,-119.85,0
36.45,-119.75,0
36.45,-119.65,0
36.45,-119.55,0
36.45,-119.45,0
36.45,-119.35,0
36.45,-119.25,0
36.45,-119.15,0
36.45,-119.05,0
36.45,-118.95,0
36.45,-118.85,0
36.45,-118.75,0
36.45,-118.65,0
36.45,-118.55,0
36.45,-118.45,0
36.45,-118.35,0
36.45,-118.25,0
36.45,-118.15,0
36.45,-118.05,0
36.55,-123.05,0
36.55,-122.95,0
36.55,-122.85,0
36.55,-122.75,0
36.55,-122.65,0
36.55,-122.55,0
36.55,-122.45,0
36.55,-122.35,0
36.55,-122.25,0
36.55,-122.15,0
36.55,-122.05,0
36.55,-121.95,0
36.55,-121.85,0
36.55,-121.75,0
36.55,-121.65,0
36.55,-121.55,0
36.55,-121.45,0
36.55,-121.35,0
36.55,-121.25,0
36.55,-121.15,0
36.55,-121.05,0
36.55,-120.95,0
36.55,-120.85,0
36.55,-120.75,0
36.55,-120.65,0
36.55,-120.55,0
36.55,-120.45,0
36.55,-120.35,0
36.55,-120.25,0
36.55,-120.15,0
36.55,-120.05,858708.290815259
36.55,-119.95,1147802.66546918
36.55,-119.85,775409.911677688
36.55,-119.75,303794.088619379
36.55,-119.65,7349.8569827269
36.55,-119.55,0
36.55,-119.45,0
36.55,-119.35,0
36.55,-119.25,0
36.55,-119.15,0
36.55,-119.05,0
36.55,-118.95,0
36.55,-118.85,0
36.55,-118.75,0
36.55,-118.65,0
36.55,-118.55,0
36.55,-118.45,0
36.55,-118.35,0
36.55,-118.25,0
36.55,-118.15,0
36.55,-118.05,0
36.65,-123.05,0
36.65,-122.95,0
36.65,-122.85,0
36.65,-122.75,0
36.65,-122.65,0
36.65,-122.55,0
36.65,-122.45,0
36.65,-122.35,0
36.65,-122.25,0
36.65,-122.15,0
36.65,-122.05,0
36.65,-121.95,0
36.65,-121.85,0
36.65,-121.75,0
36.65,-121.65,0
36.65,-121.55,0
36.65,-121.45,0
36.65,-121.35,0
36.65,-121.25,0
36.65,-121.15,0
36.65,-121.05,0
36.65,-120.95,0
36.65,-120.85,0
36.65,-120.75,0
36.65,-120.65,0
36.65,-120.55,0
36.65,-120.45,0
36.65,-120.35,0
36.65,-120.25,0
36.65,-120.15,238797.002373182
36.65,-120.05,1230723.01223133
36.65,-119.95,1200108.01192707
36.65,-119.85,1234396.81226784
36.65,-119.75,1200108.01192707
36.65,-119.65,1075198.81068568
36.65,-119.55,601278.605975703
36.65,-119.45,161647.201606461
36.65,-119.35,0
36.65,-119.25,0
36.65,-119.15,0
36.65,-119.05,0
36.65,-118.95,0
36.65,-118.85,0
36.65,-118.75,0
36.65,-118.65,0
36.65,-118.55,0
36.65,-118.45,0
36.65,-118.35,0
36.65,-118.25,0
36.65,-118.15,0
36.65,-118.05,0
36.75,-123.05,0
36.75,-122.95,0
36.75,-122.85,0
36.75,-122.75,0
36.75,-122.65,0
36.75,-122.55,0
36.75,-122.45,0
36.75,-122.35,0
36.75,-122.25,0
36.75,-122.15,0
36.75,-122.05,0
36.75,-121.95,0
36.75,-121.85,0
36.75,-121.75,0
36.75,-121.65,0
36.75,-121.55,0
36.75,-121.45,0
36.75,-121.35,0
36.75,-121.25,0
36.75,-121.15,0
36.75,-121.05,0
36.75,-120.95,0
36.75,-120.85,0
36.75,-120.75,0
36.75,-120.65,0
36.75,-120.55,0
36.75,-120.45,0
36.75,-120.35,0
36.75,-120.25,0
36.75,-120.15,845936.109981193
36.75,-120.05,1234013.89126087
36.75,-119.95,1199735.72761473
36.75,-119.85,1234013.89126087
36.75,-119.75,1199735.72761473
36.75,-119.65,1234013.89126087
36.75,-119.55,1199735.72761473
36.75,-119.45,1227892.79060946
36.75,-119.35,898577.57558083
36.75,-119.25,460306.768962387
36.75,-119.15,53865.6857296411
36.75,-119.05,0
36.75,-118.95,0
36.75,-118.85,0
36.75,-118.75,0
36.75,-118.65,0
36.75,-118.55,0
36.75,-118.45,0
36.75,-118.35,0
36.75,-118.25,0
36.75,-118.15,0
36.75,-118.05,0
36.85,-123.05,0
36.85,-122.95,0
36.85,-122.85,0
36.85,-122.75,0
36.85,-122.65,0
36.85,-122.55,0
36.85,-122.45,0
36.85,-122.35,0
36.85,-122.25,0
36.85,-122.15,0
36.85,-122.05,0
36.85,-121.95,0
36.85,-121.85,0
36.85,-121.75,0
36.85,-121.65,0
36.85,-121.55,0
36.85,-121.45,0
36.85,-121.35,0
36.85,-121.25,0
36.85,-121.15,0
36.85,-121.05,0
36.85,-120.95,0
36.85,-120.85,0
36.85,-120.75,0
36.85,-120.65,0
36.85,-120.55,0
36.85,-120.45,0
36.85,-120.35,0
36.85,-120.25,258229.50552187
36.85,-120.15,1198135.95216041
36.85,-120.05,1233627.21121348
36.85,-119.95,1199359.78867978
36.85,-119.85,1233627.21121348
36.85,-119.75,1199359.78867978
36.85,-119.65,1233627.21121348
36.85,-119.55,1199359.78867978
36.85,-119.45,1233627.21121317
36.85,-119.35,1199359.78867978
36.85,-119.25,1233627.21121348
36.85,-119.15,1141839.47228391
36.85,-119.05,767345.497451244
36.85,-118.95,294944.6010937
36.85,-118.85,6119.18259530497
36.85,-118.75,0
36.85,-118.65,0
36.85,-118.55,0
36.85,-118.45,0
36.85,-118.35,0
36.85,-118.25,0
36.85,-118.15,0
36.85,-118.05,0
36.95,-123.05,0
36.95,-122.95,0
36.95,-122.85,0
36.95,-122.75,0
36.95,-122.65,0
36.95,-122.55,0
36.95,-122.45,0
36.95,-122.35,0
36.95,-122.25,0
36.95,-122.15,0
36.95,-122.05,0
36.95,-121.95,0
36.95,-121.85,0
36.95,-121.75,0
36.95,-121.65,0
36.95,-121.55,0
36.95,-121.45,0
36.95,-121.35,0
36.95,-121.25,0
36.95,-121.15,0
36.95,-121.05,0
36.95,-120.95,0
36.95,-120.85,0
36.95,-120.75,0
36.95,-120.65,0
36.95,-120.55,0
36.95,-120.45,0
36.95,-120.35,0
36.95,-120.25,867425.468552287
36.95,-120.15,1198980.1963061
36.95,-120.05,1233236.77334373
36.95,-119.95,1198980.19630641
36.95,-119.85,1233236.77334373
36.95,-119.75,1198980.19630641
36.95,-119.65,1233236.77334373
36.95,-119.55,1198980.19630641
36.95,-119.45,1233236.77334342
36.95,-119.35,1198980.19630641
36.95,-119.25,1233236.77334373
36.95,-119.15,1198980.19630641
36.95,-119.05,1233236.77334373
36.95,-118.95,1198980.19630641
36.95,-118.85,1042378.70127863
36.95,-118.75,615394.937491961
36.95,-118.65,152931.147488062
36.95,-118.55,0
36.95,-118.45,0
36.95,-118.35,0
36.95,-118.25,0
36.95,-118.15,0
36.95,-118.05,0
37.05,-123.05,0
37.05,-122.95,0
37.05,-122.85,0
37.05,-122.75,0
37.05,-122.65,0
37.05,-122.55,0
37.05,-122.45,0
37.05,-122.35,0
37.05,-122.25,0
37.05,-122.15,0
37.05,-122.05,0
37.05,-121.95,0
37.05,-121.85,0
37.05,-121.75,0
37.05,-121.65,0
37.05,-121.55,0
37.05,-121.45,0
37.05,-121.35,0
37.05,-121.25,0
37.05,-121.15,0
37.05,-121.05,0
37.05,-120.95,0
37.05,-120.85,0
37.05,-120.75,0
37.05,-120.65,0
37.05,-120.55,0
37.05,-120.45,0
37.05,-120.35,280080.308080743
37.05,-120.25,1198596.95161191
37.05,-120.15,1198596.95161161
37.05,-120.05,1232842.57880083
37.05,-119.95,1198596.95161191
37.05,-119.85,1232842.57880083
37.05,-119.75,1198596.95161191
37.05,-119.65,1232842.57880083
37.05,-119.55,1198596.95161191
37.05,-119.45,1232842.57880051
37.05,-119.35,1198596.95161191
37.05,-119.25,1232842.57880083
37.05,-119.15,1198596.95161191
37.05,-119.05,1232842.57880083
37.05,-118.95,1198596.95161191
37.05,-118.85,1198596.95161191
37.05,-118.75,1232842.57880083
37.05,-118.65,1192481.66104247
37.05,-118.55,922185.817872841
37.05,-118.45,445193.153455854
37.05,-118.35,56260.6732389266
37.05,-118.25,0
37.05,-118.15,0
37.05,-118.05,0
37.15,-123.05,0
37.15,-122.95,0
37.15,-122.85,0
37.15,-122.75,0
37.15,-122.65,0
37.15,-122.55,0
37.15,-122.45,0
37.15,-122.35,0
37.15,-122.25,0
37.15,-122.15,0
37.15,-122.05,0
37.15,-121.95,0
37.15,-121.85,0
37.15,-121.75,0
37.15,-121.65,0
37.15,-121.55,0
37.15,-121.45,0
37.15,-121.35,0
37.15,-121.25,0
37.15,-121.15,0
37.15,-121.05,0
37.15,-120.95,0
37.15,-120.85,0
37.15,-120.75,0
37.15,-120.65,0
37.15,-120.55,0
37.15,-120.45,0
37.15,-120.35,891321.561911336
37.15,-120.25,1198210.05579302
37.15,-120.15,1198210.05579271
37.15,-120.05,1232444.62881567
37.15,-119.95,1198210.05579302
37.15,-119.85,1232444.62881567
37.15,-119.75,1198210.05579302
37.15,-119.65,1232444.62881567
37.15,-119.55,1198210.05579302
37.15,-119.45,1232444.62881536
37.15,-119.35,1198210.05579302
37.15,-119.25,1232444.62881567
37.15,-119.15,1198210.05579302
37.15,-119.05,1232444.62881567
37.15,-118.95,1198210.05579302
37.15,-118.85,1198210.05579302
37.15,-118.75,1232444.62881567
37.15,-118.65,1198210.05579302
37.15,-118.55,1232444.62881567
37.15,-118.45,1198210.05579302
37.15,-118.35,1171311.46270379
37.15,-118.25,740933.97327609
37.15,-118.15,300775.177270492
37.15,-118.05,6156.67346658737
37.25,-123.05,0
37.25,-122.95,0
37.25,-122.85,0
37.25,-122.75,0
37.25,-122.65,0
37.25,-122.55,0
37.25,-122.45,0
37.25,-122.35,0
37.25,-122.25,0
37.25,-122.15,0
37.25,-122.05,0
37.25,-121.95,0
37.25,-121.85,0
37.25,-121.75,0
37.25,-121.65,0
37.25,-121.55,0
37.25,-121.45,0
37.25,-121.35,0
37.25,-121.25,0
37.25,-121.15,0
37.25,-121.05,0
37.25,-120.95,0
37.25,-120.85,0
37.25,-120.75,0
37.25,-120.65,0
37.25,-120.55,0
37.25,-120.45,270120.522159423
37.25,-120.35,1230820.65979429
37.25,-120.25,1197819.51002821
37.25,-120.15,1197819.5100279
37.25,-120.05,1232042.92460044
37.25,-119.95,1197819.51002821
37.25,-119.85,1232042.92460044
37.25,-119.75,1197819.51002821
37.25,-119.65,1232042.92460044
37.25,-119.55,1197819.51002821
37.25,-119.45,1232042.92460013
37.25,-119.35,1197819.51002821
37.25,-119.25,1232042.92460044
37.25,-119.15,1197819.51002821
37.25,-119.05,1232042.92460044
37.25,-118.95,1197819.51002821
37.25,-118.85,1197819.51002821
37.25,-118.75,1232042.92460044
37.25,-118.65,1197819.51002821
37.25,-118.55,1232042.92460044
37.25,-118.45,1197819.51002821
37.25,-118.35,1232042.92460044
37.25,-118.25,1197819.51002821
37.25,-118.15,1232042.92460044
37.25,-118.05,649932.809262375
37.35,-123.05,0
37.35,-122.95,0
37.35,-122.85,0
37.35,-122.75,0
37.35,-122.65,0
37.35,-122.55,0
37.35,-122.45,0
37.35,-122.35,0
37.35,-122.25,0
37.35,-122.15,0
37.35,-122.05,0
37.35,-121.95,0
37.35,-121.85,0
37.35,-121.75,0
37.35,-121.65,0
37.35,-121.55,0
37.35,-121.45,0
37.35,-121.35,0
37.35,-121.25,0
37.35,-121.15,0
37.35,-121.05,0
37.35,-120.95,0
37.35,-120.85,0
37.35,-120.75,0
37.35,-120.65,0
37.35,-120.55,0
37.35,-120.45,878519.185539457
37.35,-120.35,1231637.46734878
37.35,-120.25,1197425.31547798
37.35,-120.15,1197425.31547768
37.35,-120.05,1231637.46734878
37.35,-119.95,1197425.31547798
37.35,-119.85,1231637.46734878
37.35,-119.75,1197425.31547798
37.35,-119.65,1231637.46734878
37.35,-119.55,1197425.31547798
37.35,-119.45,1231637.46734847
37.35,-119.35,1197425.31547798
37.35,-119.25,1231637.46734878
37.35,-119.15,1197425.31547798
37.35,-119.05,1231637.46734878
37.35,-118.95,1197425.31547798
37.35,-118.85,1197425.31547798
37.35,-118.75,1231637.46734878
37.35,-118.65,1197425.31547798
37.35,-118.55,1231637.46734878
37.35,-118.45,1197425.31547798
37.35,-118.35,1231637.46734878
37.35,-118.25,1197425.31547798
37.35,-118.15,1231637.46734878
37.35,-118.05,276868.858224935
37.45,-123.05,0
37.45,-122.95,0
37.45,-122.85,0
37.45,-122.75,0
37.45,-122.65,0
37.45,-122.55,0
37.45,-122.45,0
37.45,-122.35,0
37.45,-122.25,0
37.45,-122.15,0
37.45,-122.05,0
37.45,-121.95,0
37.45,-121.85,0
37.45,-121.75,0
37.45,-121.65,0
37.45,-121.55,0
37.45,-121.45,0
37.45,-121.35,0
37.45,-121.25,0
37.45,-121.15,0
37.45,-121.05,0
37.45,-120.95,0
37.45,-120.85,0
37.45,-120.75,0
37.45,-120.65,0
37.45,-120.55,290706.672104703
37.45,-120.45,1197027.4733723
37.45,-120.35,1231228.2583258
37.45,-120.25,1197027.4733723
37.45,-120.15,1197027.473372
37.45,-120.05,1231228.2583258
37.45,-119.95,1197027.4733723
37.45,-119.85,1231228.2583258
37.45,-119.75,1197027.4733723
37.45,-119.65,1231228.2583258
37.45,-119.55,1197027.4733723
37.45,-119.45,1231228.25832549
37.45,-119.35,1197027.4733723
37.45,-119.25,1231228.2583258
37.45,-119.15,1197027.4733723
37.45,-119.05,1231228.2583258
37.45,-118.95,1197027.4733723
37.45,-118.85,1197027.4733723
37.45,-118.75,1231228.2583258
37.45,-118.65,1197027.4733723
37.45,-118.55,1231228.2583258
37.45,-118.45,1197027.4733723
37.45,-118.35,1231228.2583258
37.45,-118.25,1197027.4733723
37.45,-118.15,1034573.74484321
37.45,-118.05,2460.23883657356
37.55,-123.05,0
37.55,-122.95,0
37.55,-122.85,0
37.55,-122.75,0
37.55,-122.65,0
37.55,-122.55,0
37.55,-122.45,0
37.55,-122.35,0
37.55,-122.25,0
37.55,-122.15,0
37.55,-122.05,0
37.55,-121.95,0
37.55,-121.85,0
37.55,-121.75,0
37.55,-121.65,0
37.55,-121.55,0
37.55,-121.45,0
37.55,-121.35,0
37.55,-121.25,0
37.55,-121.15,0
37.55,-121.05,0
37.55,-120.95,0
37.55,-120.85,0
37.55,-120.75,0
37.55,-120.65,0
37.55,-120.55,899911.582539101
37.55,-120.45,1196625.98492309
37.55,-120.35,1230815.29877804
37.55,-120.25,1196625.98492309
37.55,-120.15,1196625.98492279
37.55,-120.05,1230815.29877804
37.55,-119.95,1196625.98492309
37.55,-119.85,1230815.29877804
37.55,-119.75,1196625.98492309
37.55,-119.65,1230815.29877804
37.55,-119.55,1196625.98492309
37.55,-119.45,1230815.29877772
37.55,-119.35,1196625.98492309
37.55,-119.25,1230815.29877804
37.55,-119.15,1196625.98492309
37.55,-119.05,1230815.29877804
37.55,-118.95,1196625.98492309
37.55,-118.85,1196625.98492309
37.55,-118.75,1230815.29877804
37.55,-118.65,1196625.98492309
37.55,-118.55,1230815.29877804
37.55,-118.45,1196625.98492309
37.55,-118.35,1230815.29877804
37.55,-118.25,1196625.98492309
37.55,-118.15,586102.523227637
37.55,-118.05,0
37.65,-123.05,0
37.65,-122.95,0
37.65,-122.85,0
37.65,-122.75,0
37.65,-122.65,0
37.65,-122.55,0
37.65,-122.45,0
37.65,-122.35,0
37.65,-122.25,0
37.65,-122.15,0
37.65,-122.05,0
37.65,-121.95,0
37.65,-121.85,0
37.65,-121.75,0
37.65,-121.65,0
37.65,-121.55,0
37.65,-121.45,0
37.65,-121.35,0
37.65,-121.25,0
37.65,-121.15,0
37.65,-121.05,0
37.65,-120.95,0
37.65,-120.85,0
37.65,-120.75,0
37.65,-120.65,278304.442961124
37.65,-120.55,1230398.58993339
37.65,-120.45,1196220.85132413
37.65,-120.35,1230398.58993339
37.65,-120.25,1196220.85132413
37.65,-120.15,1196220.85132383
37.65,-120.05,1230398.58993339
37.65,-119.95,1196220.85132413
37.65,-119.85,1230398.58993339
37.65,-119.75,1196220.85132413
37.65,-119.65,1230398.58993339
37.65,-119.55,1196220.85132413
37.65,-119.45,1230398.58993308
37.65,-119.35,1196220.85132413
37.65,-119.25,1230398.58993339
37.65,-119.15,1196220.85132413
37.65,-119.05,1230398.58993339
37.65,-118.95,1196220.85132413
37.65,-118.85,1196220.85132413
37.65,-118.75,1230398.58993339
37.65,-118.65,1196220.85132413
37.65,-118.55,1230398.58993339
37.65,-118.45,1196220.85132413
37.65,-118.35,1230398.58993339
37.65,-118.25,1188897.05019357
37.65,-118.15,144034.755567599
37.65,-118.05,0
37.75,-123.05,0
37.75,-122.95,0
37.75,-122.85,0
37.75,-122.75,0
37.75,-122.65,0
37.75,-122.55,0
37.75,-122.45,0
37.75,-122.35,0
37.75,-122.25,0
37.75,-122.15,0
37.75,-122.05,0
37.75,-121.95,0
37.75,-121.85,0
37.75,-121.75,0
37.75,-121.65,0
37.75,-121.55,0
37.75,-121.45,0
37.75,-121.35,0
37.75,-121.25,0
37.75,-121.15,0
37.75,-121.05,0
37.75,-120.95,0
37.75,-120.85,0
37.75,-120.75,0
37.75,-120.65,887097.324171267
37.75,-120.55,1229978.13310129
37.75,-120.45,1195812.07384848
37.75,-120.35,1229978.13310129
37.75,-120.25,1195812.07384848
37.75,-120.15,1195812.07384817
37.75,-120.05,1229978.13310129
37.75,-119.95,1195812.07384848
37.75,-119.85,1229978.13310129
37.75,-119.75,1195812.07384848
37.75,-119.65,1229978.13310129
37.75,-119.55,1195812.07384848
37.75,-119.45,1229978.13310098
37.75,-119.35,1195812.07384848
37.75,-119.25,1229978.13310129
37.75,-119.15,1195812.07384848
37.75,-119.05,1229978.13310129
37.75,-118.95,1195812.07384848
37.75,-118.85,1195812.07384848
37.75,-118.75,1229978.13310129
37.75,-118.65,1195812.07384848
37.75,-118.55,1229978.13310129
37.75,-118.45,1195812.07384848
37.75,-118.35,1229978.13310129
37.75,-118.25,880996.242161836
37.75,-118.15,0
37.75,-118.05,0
37.85,-123.05,0
37.85,-122.95,0
37.85,-122.85,0
37.85,-122.75,0
37.85,-122.65,0
37.85,-122.55,0
37.85,-122.45,0
37.85,-122.35,0
37.85,-122.25,0
37.85,-122.15,0
37.85,-122.05,0
37.85,-121.95,0
37.85,-121.85,0
37.85,-121.75,0
37.85,-121.65,0
37.85,-121.55,0
37.85,-121.45,0
37.85,-121.35,0
37.85,-121.25,0
37.85,-121.15,0
37.85,-121.05,0
37.85,-120.95,0
37.85,-120.85,0
37.85,-120.75,298849.913425595
37.85,-120.65,1195399.65370238
37.85,-120.55,1229553.92952245
37.85,-120.45,1195399.65370238
37.85,-120.35,1229553.92952245
37.85,-120.25,1195399.65370238
37.85,-120.15,1195399.65370208
37.85,-120.05,1229553.92952245
37.85,-119.95,1195399.65370238
37.85,-119.85,1229553.92952245
37.85,-119.75,1195399.65370238
37.85,-119.65,1229553.92952245
37.85,-119.55,1195399.65370238
37.85,-119.45,1229553.92952213
37.85,-119.35,1195399.65370238
37.85,-119.25,1229553.92952245
37.85,-119.15,1195399.65370238
37.85,-119.05,1229553.92952245
37.85,-118.95,1195399.65370238
37.85,-118.85,1195399.65370238
37.85,-118.75,1229553.92952245
37.85,-118.65,1195399.65370238
37.85,-118.55,1229553.92952245
37.85,-118.45,1195399.65370238
37.85,-118.35,1229553.92952245
37.85,-118.25,433027.425575862
37.85,-118.15,0
37.85,-118.05,0
37.95,-123.05,0
37.95,-122.95,0
37.95,-122.85,0
37.95,-122.75,0
37.95,-122.65,0
37.95,-122.55,0
37.95,-122.45,0
37.95,-122.35,0
37.95,-122.25,0
37.95,-122.15,0
37.95,-122.05,0
37.95,-121.95,0
37.95,-121.85,0
37.95,-121.75,0
37.95,-121.65,0
37.95,-121.55,0
37.95,-121.45,0
37.95,-121.35,0
37.95,-121.25,0
37.95,-121.15,0
37.95,-121.05,0
37.95,-120.95,0
37.95,-120.85,0
37.95,-120.75,908431.404252733
37.95,-120.65,1194983.59217138
37.95,-120.55,1229125.98051913
37.95,-120.45,1194983.59217138
37.95,-120.35,1229125.98051913
37.95,-120.25,1194983.59217138
37.95,-120.15,1194983.59217108
37.95,-120.05,1229125.98051913
37.95,-119.95,1194983.59217138
37.95,-119.85,1229125.98051913
37.95,-119.75,1194983.59217138
37.95,-119.65,1229125.98051913
37.95,-119.55,1194983.59217138
37.95,-119.45,1229125.98051882
37.95,-119.35,1194983.59217138
37.95,-119.25,1229125.98051913
37.95,-119.15,1194983.59217138
37.95,-119.05,1229125.98051913
37.95,-118.95,1194983.59217138
37.95,-118.85,1194983.59217138
37.95,-118.75,1229125.98051913
37.95,-118.65,1194983.59217138
37.95,-118.55,1229125.98051913
37.95,-118.45,1194983.59217138
37.95,-118.35,1163279.94584847
37.95,-118.25,47555.4694843713
37.95,-118.15,0
37.95,-118.05,0
38.05,-123.05,0
38.05,-122.95,0
38.05,-122.85,0
38.05,-122.75,0
38.05,-122.65,0
38.05,-122.55,0
38.05,-122.45,0
38.05,-122.35,0
38.05,-122.25,0
38.05,-122.15,0
38.05,-122.05,0
38.05,-121.95,0
38.05,-121.85,0
38.05,-121.75,0
38.05,-121.65,0
38.05,-121.55,0
38.05,-121.45,0
38.05,-121.35,0
38.05,-121.25,0
38.05,-121.15,0
38.05,-121.05,0
38.05,-120.95,0
38.05,-120.85,308392.514594239
38.05,-120.75,1272576.22623045
38.05,-120.65,1237226.88661294
38.05,-120.55,1272576.22623045
38.05,-120.45,1237226.88661294
38.05,-120.35,1272576.22623045
38.05,-120.25,1237226.88661294
38.05,-120.15,1237226.88661262
38.05,-120.05,1272576.22623045
38.05,-119.95,1237226.88661294
38.05,-119.85,1272576.22623045
38.05,-119.75,1237226.88661294
38.05,-119.65,1272576.22623045
38.05,-119.55,1237226.88661294
38.05,-119.45,1272576.22623013
38.05,-119.35,1237226.88661294
38.05,-119.25,1272576.22623045
38.05,-119.15,1237226.88661294
38.05,-119.05,1272576.22623045
38.05,-118.95,1237226.88661294
38.05,-118.85,1237226.88661294
38.05,-118.75,1272576.22623045
38.05,-118.65,1237226.88661294
38.05,-118.55,1272576.22623045
38.05,-118.45,1237226.88661294
38.05,-118.35,780123.357076138
38.05,-118.25,0
38.05,-118.15,0
38.05,-118.05,0
38.15,-123.05,0
38.15,-122.95,0
38.15,-122.85,0
38.15,-122.75,0
38.15,-122.65,0
38.15,-122.55,0
38.15,-122.45,0
38.15,-122.35,0
38.15,-122.25,0
38.15,-122.15,0
38.15,-122.05,0
38.15,-121.95,0
38.15,-121.85,0
38.15,-121.75,0
38.15,-121.65,0
38.15,-121.55,0
38.15,-121.45,0
38.15,-121.35,0
38.15,-121.25,0
38.15,-121.15,0
38.15,-121.05,0
38.15,-120.95,1218.51076531231
38.15,-120.85,917538.606280404
38.15,-120.75,1228258.85143481
38.15,-120.65,1194140.55000606
38.15,-120.55,1228258.85143481
38.15,-120.45,1194140.55000606
38.15,-120.35,1228258.85143481
38.15,-120.25,1194140.55000606
38.15,-120.15,1194140.55000576
38.15,-120.05,1228258.85143481
38.15,-119.95,1194140.55000606
38.15,-119.85,1228258.85143481
38.15,-119.75,1194140.55000606
38.15,-119.65,1228258.85143481
38.15,-119.55,1194140.55000606
38.15,-119.45,1228258.8514345
38.15,-119.35,1194140.55000606
38.15,-119.25,1228258.85143481
38.15,-119.15,1194140.55000606
38.15,-119.05,1228258.85143481
38.15,-118.95,1194140.55000606
38.15,-118.85,1194140.55000606
38.15,-118.75,1228258.85143481
38.15,-118.65,1194140.55000606
38.15,-118.55,1228258.85143481
38.15,-118.45,1194140.55000606
38.15,-118.35,297316.626736204
38.15,-118.25,0
38.15,-118.15,0
38.15,-118.05,0
38.25,-123.05,0
38.25,-122.95,0
38.25,-122.85,0
38.25,-122.75,0
38.25,-122.65,0
38.25,-122.55,0
38.25,-122.45,0
38.25,-122.35,0
38.25,-122.25,0
38.25,-122.15,0
38.25,-122.05,0
38.25,-121.95,0
38.25,-121.85,0
38.25,-121.75,0
38.25,-121.65,0
38.25,-121.55,0
38.25,-121.45,0
38.25,-121.35,0
38.25,-121.25,0
38.25,-121.15,0
38.25,-121.05,0
38.25,-120.95,332534.495043084
38.25,-120.85,1193713.57194984
38.25,-120.75,1227819.67400523
38.25,-120.65,1193713.57194953
38.25,-120.55,1227819.67400523
38.25,-120.45,1193713.57194953
38.25,-120.35,1227819.67400523
38.25,-120.25,1193713.57194953
38.25,-120.15,1193713.57194923
38.25,-120.05,1227819.67400523
38.25,-119.95,1193713.57194953
38.25,-119.85,1227819.67400523
38.25,-119.75,1193713.57194953
38.25,-119.65,1227819.67400523
38.25,-119.55,1193713.57194953
38.25,-119.45,1227819.67400492
38.25,-119.35,1193713.57194953
38.25,-119.25,1227819.67400523
38.25,-119.15,1193713.57194953
38.25,-119.05,1227819.67400523
38.25,-118.95,1193713.57194953
38.25,-118.85,1193713.57194953
38.25,-118.75,1227819.67400523
38.25,-118.65,1193713.57194953
38.25,-118.55,1227819.67400523
38.25,-118.45,1036581.88747862
38.25,-118.35,4872.30029367156
38.25,-118.25,0
38.25,-118.15,0
38.25,-118.05,0
38.35,-123.05,0
38.35,-122.95,0
38.35,-122.85,0
38.35,-122.75,0
38.35,-122.65,0
38.35,-122.55,0
38.35,-122.45,0
38.35,-122.35,0
38.35,-122.25,0
38.35,-122.15,0
38.35,-122.05,0
38.35,-121.95,0
38.35,-121.85,0
38.35,-121.75,0
38.35,-121.65,0
38.35,-121.55,0
38.35,-121.45,0
38.35,-121.35,0
38.35,-121.25,0
38.35,-121.15,0
38.35,-121.05,0
38.35,-120.95,941232.373710605
38.35,-120.85,1193282.9576153
38.35,-120.75,1227376.756404
38.35,-120.65,1193282.957615
38.35,-120.55,1227376.756404
38.35,-120.45,1193282.957615
38.35,-120.35,1227376.756404
38.35,-120.25,1193282.957615
38.35,-120.15,1193282.95761469
38.35,-120.05,1227376.756404
38.35,-119.95,1193282.957615
38.35,-119.85,1227376.756404
38.35,-119.75,1193282.957615
38.35,-119.65,1227376.756404
38.35,-119.55,1193282.957615
38.35,-119.45,1227376.75640369
38.35,-119.35,1193282.957615
38.35,-119.25,1227376.756404
38.35,-119.15,1193282.957615
38.35,-119.05,1227376.756404
38.35,-118.95,1193282.957615
38.35,-118.85,1193282.957615
38.35,-118.75,1227376.756404
38.35,-118.65,1193282.957615
38.35,-118.55,1227376.756404
38.35,-118.45,590553.30045232
38.35,-118.35,0
38.35,-118.25,0
38.35,-118.15,0
38.35,-118.05,0
38.45,-123.05,0
38.45,-122.95,0
38.45,-122.85,0
38.45,-122.75,0
38.45,-122.65,0
38.45,-122.55,0
38.45,-122.45,0
38.45,-122.35,0
38.45,-122.25,0
38.45,-122.15,0
38.45,-122.05,0
38.45,-121.95,0
38.45,-121.85,0
38.45,-121.75,0
38.45,-121.65,0
38.45,-121.55,0
38.45,-121.45,0
38.45,-121.35,0
38.45,-121.25,0
38.45,-121.15,0
38.45,-121.05,320121.643157445
38.45,-120.95,1226930.10001029
38.45,-120.85,1192848.70834364
38.45,-120.75,1226930.10001029
38.45,-120.65,1192848.70834333
38.45,-120.55,1226930.10001029
38.45,-120.45,1192848.70834333
38.45,-120.35,1226930.10001029
38.45,-120.25,1192848.70834333
38.45,-120.15,1192848.70834303
38.45,-120.05,1226930.10001029
38.45,-119.95,1192848.70834333
38.45,-119.85,1226930.10001029
38.45,-119.75,1192848.70834333
38.45,-119.65,1226930.10001029
38.45,-119.55,1192848.70834333
38.45,-119.45,1226930.10000997
38.45,-119.35,1192848.70834333
38.45,-119.25,1226930.10001029
38.45,-119.15,1192848.70834333
38.45,-119.05,1226930.10001029
38.45,-118.95,1192848.70834333
38.45,-118.85,1192848.70834333
38.45,-118.75,1226930.10001029
38.45,-118.65,1192848.70834333
38.45,-118.55,1219626.94465308
38.45,-118.45,150931.877382218
38.45,-118.35,0
38.45,-118.25,0
38.45,-118.15,0
38.45,-118.05,0
38.55,-123.05,0
38.55,-122.95,0
38.55,-122.85,0
38.55,-122.75,0
38.55,-122.65,0
38.55,-122.55,0
38.55,-122.45,0
38.55,-122.35,0
38.55,-122.25,0
38.55,-122.15,0
38.55,-122.05,0
38.55,-121.95,0
38.55,-121.85,0
38.55,-121.75,0
38.55,-121.65,0
38.55,-121.55,0
38.55,-121.45,0
38.55,-121.35,0
38.55,-121.25,0
38.55,-121.15,1216.74574026295
38.55,-121.05,927160.254080131
38.55,-120.95,1226479.70618474
38.55,-120.85,1192410.82545769
38.55,-120.75,1226479.70618474
38.55,-120.65,1192410.82545739
38.55,-120.55,1226479.70618474
38.55,-120.45,1192410.82545739
38.55,-120.35,1226479.70618474
38.55,-120.25,1192410.82545739
38.55,-120.15,1192410.82545708
38.55,-120.05,1226479.70618474
38.55,-119.95,1192410.82545739
38.55,-119.85,1226479.70618474
38.55,-119.75,1192410.82545739
38.55,-119.65,1226479.70618474
38.55,-119.55,1192410.82545739
38.55,-119.45,1226479.70618443
38.55,-119.35,1192410.82545739
38.55,-119.25,1226479.70618474
38.55,-119.15,1192410.82545739
38.55,-119.05,1226479.70618474
38.55,-118.95,1192410.82545739
38.55,-118.85,1192410.82545739
38.55,-118.75,1226479.70618474
38.55,-118.65,1192410.82545739
38.55,-118.55,919859.779638555
38.55,-118.45,0
38.55,-118.35,0
38.55,-118.25,0
38.55,-118.15,0
38.55,-118.05,0
38.65,-123.05,0
38.65,-122.95,0
38.65,-122.85,0
38.65,-122.75,0
38.65,-122.65,0
38.65,-122.55,0
38.65,-122.45,0
38.65,-122.35,0
38.65,-122.25,0
38.65,-122.15,0
38.65,-122.05,0
38.65,-121.95,0
38.65,-121.85,0
38.65,-121.75,0
38.65,-121.65,0
38.65,-121.55,0
38.65,-121.45,0
38.65,-121.35,0
38.65,-121.25,0
38.65,-121.15,341778.955289441
38.65,-121.05,1191969.31026181
38.65,-120.95,1226025.57626929
38.65,-120.85,1191969.31026211
38.65,-120.75,1226025.57626929
38.65,-120.65,1191969.31026181
38.65,-120.55,1226025.57626929
38.65,-120.45,1191969.31026181
38.65,-120.35,1226025.57626929
38.65,-120.25,1191969.31026181
38.65,-120.15,1191969.3102615
38.65,-120.05,1226025.57626929
38.65,-119.95,1191969.31026181
38.65,-119.85,1226025.57626929
38.65,-119.75,1191969.31026181
38.65,-119.65,1226025.57626929
38.65,-119.55,1191969.31026181
38.65,-119.45,1226025.57626897
38.65,-119.35,1191969.31026181
38.65,-119.25,1226025.57626929
38.65,-119.15,1191969.31026181
38.65,-119.05,1226025.57626929
38.65,-118.95,1191969.31026181
38.65,-118.85,1191969.31026181
38.65,-118.75,1226025.57626929
38.65,-118.65,1191969.31026181
38.65,-118.55,471922.543246511
38.65,-118.45,0
38.65,-118.35,0
38.65,-118.25,0
38.65,-118.15,0
38.65,-118.05,0
38.75,-123.05,0
38.75,-122.95,0
38.75,-122.85,0
38.75,-122.75,0
38.75,-122.65,0
38.75,-122.55,0
38.75,-122.45,0
38.75,-122.35,0
38.75,-122.25,0
38.75,-122.15,0
38.75,-122.05,0
38.75,-121.95,0
38.75,-121.85,0
38.75,-121.75,0
38.75,-121.65,0
38.75,-121.55,0
38.75,-121.45,0
38.75,-121.35,0
38.75,-121.25,0
38.75,-121.15,948355.967369607
38.75,-121.05,1191524.16413074
38.75,-120.95,1225567.71167733
38.75,-120.85,1191524.16413104
38.75,-120.75,1225567.71167733
38.75,-120.65,1191524.16413074
38.75,-120.55,1225567.71167733
38.75,-120.45,1191524.16413074
38.75,-120.35,1225567.71167733
38.75,-120.25,1191524.16413074
38.75,-120.15,1191524.16413044
38.75,-120.05,1225567.71167733
38.75,-119.95,1191524.16413074
38.75,-119.85,1225567.71167733
38.75,-119.75,1191524.16413074
38.75,-119.65,1225567.71167733
38.75,-119.55,1191524.16413074
38.75,-119.45,1225567.71167702
38.75,-119.35,1191524.16413074
38.75,-119.25,1225567.71167733
38.75,-119.15,1191524.16413074
38.75,-119.05,1225567.71167733
38.75,-118.95,1191524.16413074
38.75,-118.85,1191524.16413074
38.75,-118.75,1225567.71167733
38.75,-118.65,1147753.88871369
38.75,-118.55,68087.0950931852
38.75,-118.45,0
38.75,-118.35,0
38.75,-118.25,0
38.75,-118.15,0
38.75,-118.05,0
38.85,-123.05,0
38.85,-122.95,0
38.85,-122.85,0
38.85,-122.75,0
38.85,-122.65,0
38.85,-122.55,0
38.85,-122.45,0
38.85,-122.35,0
38.85,-122.25,0
38.85,-122.15,0
38.85,-122.05,0
38.85,-121.95,0
38.85,-121.85,0
38.85,-121.75,0
38.85,-121.65,0
38.85,-121.55,0
38.85,-121.45,0
38.85,-121.35,0
38.85,-121.25,329368.806389636
38.85,-121.15,1225106.11380383
38.85,-121.05,1191075.38842009
38.85,-120.95,1225106.11380352
38.85,-120.85,1191075.38842039
38.85,-120.75,1225106.11380352
38.85,-120.65,1191075.38842009
38.85,-120.55,1225106.11380352
38.85,-120.45,1191075.38842009
38.85,-120.35,1225106.11380352
38.85,-120.25,1191075.38842009
38.85,-120.15,1191075.38841978
38.85,-120.05,1225106.11380352
38.85,-119.95,1191075.38842009
38.85,-119.85,1225106.11380352
38.85,-119.75,1191075.38842009
38.85,-119.65,1225106.11380352
38.85,-119.55,1191075.38842009
38.85,-119.45,1225106.11380321
38.85,-119.35,1191075.38842009
38.85,-119.25,1225106.11380352
38.85,-119.15,1191075.38842009
38.85,-119.05,1225106.11380352
38.85,-118.95,1191075.38842009
38.85,-118.85,1191075.38842009
38.85,-118.75,1225106.11380352
38.85,-118.65,766906.704176606
38.85,-118.55,0
38.85,-118.45,0
38.85,-118.35,0
38.85,-118.25,0
38.85,-118.15,0
38.85,-118.05,0
38.95,-123.05,0
38.95,-122.95,0
38.95,-122.85,0
38.95,-122.75,0
38.95,-122.65,0
38.95,-122.55,0
38.95,-122.45,0
38.95,-122.35,0
38.95,-122.25,0
38.95,-122.15,0
38.95,-122.05,0
38.95,-121.95,0
38.95,-121.85,0
38.95,-121.75,0
38.95,-121.65,0
38.95,-121.55,0
38.95,-121.45,0
38.95,-121.35,1214.92141272233
38.95,-121.25,934274.566383471
38.95,-121.15,1224640.78402442
38.95,-121.05,1190622.98446788
38.95,-120.95,1224640.78402411
38.95,-120.85,1190622.98446819
38.95,-120.75,1224640.78402411
38.95,-120.65,1190622.98446788
38.95,-120.55,1224640.78402411
38.95,-120.45,1190622.98446788
38.95,-120.35,1224640.78402411
38.95,-120.25,1190622.98446788
38.95,-120.15,1190622.98446758
38.95,-120.05,1224640.78402411
38.95,-119.95,1190622.98446788
38.95,-119.85,1224640.78402411
38.95,-119.75,1190622.98446788
38.95,-119.65,1224640.78402411
38.95,-119.55,1190622.98446788
38.95,-119.45,1224640.7840238
38.95,-119.35,1190622.98446788
38.95,-119.25,1224640.78402411
38.95,-119.15,1190622.98446788
38.95,-119.05,1224640.78402411
38.95,-118.95,1190622.98446788
38.95,-118.85,1190622.98446788
38.95,-118.75,1224640.78402411
38.95,-118.65,317094.488720528
38.95,-118.55,0
38.95,-118.45,0
38.95,-118.35,0
38.95,-118.25,0
38.95,-118.15,0
38.95,-118.05,0
39.05,-123.05,0
39.05,-122.95,0
39.05,-122.85,0
39.05,-122.75,0
39.05,-122.65,0
39.05,-122.55,0
39.05,-122.45,0
39.05,-122.35,0
39.05,-122.25,0
39.05,-122.15,0
39.05,-122.05,0
39.05,-121.95,0
39.05,-121.85,0
39.05,-121.75,0
39.05,-121.65,0
39.05,-121.55,0
39.05,-121.45,0
39.05,-121.35,350977.805731308
39.05,-121.25,1190166.95369094
39.05,-121.15,1224171.72379671
39.05,-121.05,1190166.95369094
39.05,-120.95,1224171.72379639
39.05,-120.85,1190166.95369124
39.05,-120.75,1224171.72379639
39.05,-120.65,1190166.95369094
39.05,-120.55,1224171.72379639
39.05,-120.45,1190166.95369094
39.05,-120.35,1224171.72379639
39.05,-120.25,1190166.95369094
39.05,-120.15,1190166.95369064
39.05,-120.05,1224171.72379639
39.05,-119.95,1190166.95369094
39.05,-119.85,1224171.72379639
39.05,-119.75,1190166.95369094
39.05,-119.65,1224171.72379639
39.05,-119.55,1190166.95369094
39.05,-119.45,1224171.72379608
39.05,-119.35,1190166.95369094
39.05,-119.25,1224171.72379639
39.05,-119.15,1190166.95369094
39.05,-119.05,1224171.72379639
39.05,-118.95,1190166.95369094
39.05,-118.85,1190166.95369094
39.05,-118.75,1084509.27514899
39.05,-118.65,10930.1046767535
39.05,-118.55,0
39.05,-118.45,0
39.05,-118.35,0
39.05,-118.25,0
39.05,-118.15,0
39.05,-118.05,0
39.15,-123.05,0
39.15,-122.95,0
39.15,-122.85,0
39.15,-122.75,0
39.15,-122.65,0
39.15,-122.55,0
39.15,-122.45,0
39.15,-122.35,0
39.15,-122.25,0
39.15,-122.15,0
39.15,-122.05,0
39.15,-121.95,0
39.15,-121.85,0
39.15,-121.75,0
39.15,-121.65,0
39.15,-121.55,0
39.15,-121.45,1213.98703820407
39.15,-121.35,955407.799066357
39.15,-121.25,1189707.29743968
39.15,-121.15,1223698.9345097
39.15,-121.05,1189707.29743968
39.15,-120.95,1223698.93450939
39.15,-120.85,1189707.29743999
39.15,-120.75,1223698.93450939
39.15,-120.65,1189707.29743968
39.15,-120.55,1223698.93450939
39.15,-120.45,1189707.29743968
39.15,-120.35,1223698.93450939
39.15,-120.25,1189707.29743968
39.15,-120.15,1189707.29743938
39.15,-120.05,1223698.93450939
39.15,-119.95,1189707.29743968
39.15,-119.85,1223698.93450939
39.15,-119.75,1189707.29743968
39.15,-119.65,1223698.93450939
39.15,-119.55,1189707.29743968
39.15,-119.45,1223698.93450908
39.15,-119.35,1189707.29743968
39.15,-119.25,1223698.93450939
39.15,-119.15,1189707.29743968
39.15,-119.05,1223698.93450939
39.15,-118.95,1189707.29743968
39.15,-118.85,1189707.29743968
39.15,-118.75,648269.078400807
39.15,-118.65,0
39.15,-118.55,0
39.15,-118.45,0
39.15,-118.35,0
39.15,-118.25,0
39.15,-118.15,0
39.15,-118.05,0
39.25,-123.05,0
39.25,-122.95,0
39.25,-122.85,0
39.25,-122.75,0
39.25,-122.65,0
39.25,-122.55,0
39.25,-122.45,0
39.25,-122.35,0
39.25,-122.25,0
39.25,-122.15,0
39.25,-122.05,0
39.25,-121.95,0
39.25,-121.85,0
39.25,-121.75,0
39.25,-121.65,0
39.25,-121.55,0
39.25,-121.45,340997.519201404
39.25,-121.35,1223222.41763319
39.25,-121.25,1189244.01714338
39.25,-121.15,1223222.41763351
39.25,-121.05,1189244.01714338
39.25,-120.95,1223222.41763319
39.25,-120.85,1189244.01714369
39.25,-120.75,1223222.41763319
39.25,-120.65,1189244.01714338
39.25,-120.55,1223222.41763319
39.25,-120.45,1189244.01714338
39.25,-120.35,1223222.41763319
39.25,-120.25,1189244.01714338
39.25,-120.15,1189244.01714308
39.25,-120.05,1223222.41763319
39.25,-119.95,1189244.01714338
39.25,-119.85,1223222.41763319
39.25,-119.75,1189244.01714338
39.25,-119.65,1223222.41763319
39.25,-119.55,1189244.01714338
39.25,-119.45,1223222.41763288
39.25,-119.35,1189244.01714338
39.25,-119.25,1223222.41763319
39.25,-119.15,1189244.01714338
39.25,-119.05,1223222.41763319
39.25,-118.95,1189244.01714338
39.25,-118.85,1189244.01714338
39.25,-118.75,199016.345726036
39.25,-118.65,0
39.25,-118.55,0
39.25,-118.45,0
39.25,-118.35,0
39.25,-118.25,0
39.25,-118.15,0
39.25,-118.05,0
39.35,-123.05,0
39.35,-122.95,0
39.35,-122.85,0
39.35,-122.75,0
39.35,-122.65,0
39.35,-122.55,0
39.35,-122.45,0
39.35,-122.35,0
39.35,-122.25,0
39.35,-122.15,0
39.35,-122.05,0
39.35,-121.95,0
39.35,-121.85,0
39.35,-121.75,0
39.35,-121.65,0
39.35,-121.55,2426.07574329226
39.35,-121.45,943743.464140931
39.35,-121.35,1222742.1746193
39.35,-121.25,1188777.11421321
39.35,-121.15,1222742.17461961
39.35,-121.05,1188777.11421321
39.35,-120.95,1222742.1746193
39.35,-120.85,1188777.11421351
39.35,-120.75,1222742.1746193
39.35,-120.65,1188777.11421321
39.35,-120.55,1222742.1746193
39.35,-120.45,1188777.11421321
39.35,-120.35,1222742.1746193
39.35,-120.25,1188777.11421321
39.35,-120.15,1188777.11421291
39.35,-120.05,1222742.1746193
39.35,-119.95,1188777.11421321
39.35,-119.85,1222742.1746193
39.35,-119.75,1188777.11421321
39.35,-119.65,1222742.1746193
39.35,-119.55,1188777.11421321
39.35,-119.45,1222742.17461899
39.35,-119.35,1188777.11421321
39.35,-119.25,1222742.1746193
39.35,-119.15,1188777.11421321
39.35,-119.05,1222742.1746193
39.35,-118.95,1188777.11421321
39.35,-118.85,941317.388397399
39.35,-118.75,0
39.35,-118.65,0
39.35,-118.55,0
39.35,-118.45,0
39.35,-118.35,0
39.35,-118.25,0
39.35,-118.15,0
39.35,-118.05,0
39.45,-123.05,0
39.45,-122.95,0
39.45,-122.85,0
39.45,-122.75,0
39.45,-122.65,0
39.45,-122.55,0
39.45,-122.45,0
39.45,-122.35,0
39.45,-122.25,0
39.45,-122.15,0
39.45,-122.05,0
39.45,-121.95,0
39.45,-121.85,0
39.45,-121.75,0
39.45,-121.65,0
39.45,-121.55,362554.765737438
39.45,-121.45,1188306.59004274
39.45,-121.35,1222258.2069008
39.45,-121.25,1188306.59004244
39.45,-121.15,1222258.20690111
39.45,-121.05,1188306.59004244
39.45,-120.95,1222258.2069008
39.45,-120.85,1188306.59004274
39.45,-120.75,1222258.2069008
39.45,-120.65,1188306.59004244
39.45,-120.55,1222258.2069008
39.45,-120.45,1188306.59004244
39.45,-120.35,1222258.2069008
39.45,-120.25,1188306.59004244
39.45,-120.15,1188306.59004214
39.45,-120.05,1222258.2069008
39.45,-119.95,1188306.59004244
39.45,-119.85,1222258.2069008
39.45,-119.75,1188306.59004244
39.45,-119.65,1222258.2069008
39.45,-119.55,1188306.59004244
39.45,-119.45,1222258.20690048
39.45,-119.35,1188306.59004244
39.45,-119.25,1222258.2069008
39.45,-119.15,1188306.59004244
39.45,-119.05,1222258.2069008
39.45,-118.95,1188306.59004244
39.45,-118.85,493511.002191095
39.45,-118.75,0
39.45,-118.65,0
39.45,-118.55,0
39.45,-118.45,0
39.45,-118.35,0
39.45,-118.25,0
39.45,-118.15,0
39.45,-118.05,0
39.55,-123.05,0
39.55,-122.95,0
39.55,-122.85,0
39.55,-122.75,0
39.55,-122.65,0
39.55,-122.55,0
39.55,-122.45,0
39.55,-122.35,0
39.55,-122.25,0
39.55,-122.15,0
39.55,-122.05,0
39.55,-121.95,0
39.55,-121.85,0
39.55,-121.75,0
39.55,-121.65,4848.29569837992
39.55,-121.55,962386.696128414
39.55,-121.45,1187832.44610338
39.55,-121.35,1221770.51599174
39.55,-121.25,1187832.44610308
39.55,-121.15,1221770.51599205
39.55,-121.05,1187832.44610308
39.55,-120.95,1221770.51599174
39.55,-120.85,1187832.44610338
39.55,-120.75,1221770.51599174
39.55,-120.65,1187832.44610308
39.55,-120.55,1221770.51599174
39.55,-120.45,1187832.44610308
39.55,-120.35,1221770.51599174
39.55,-120.25,1187832.44610308
39.55,-120.15,1187832.44610278
39.55,-120.05,1221770.51599174
39.55,-119.95,1187832.44610308
39.55,-119.85,1221770.51599174
39.55,-119.75,1187832.44610308
39.55,-119.65,1221770.51599174
39.55,-119.55,1187832.44610308
39.55,-119.45,1221770.51599143
39.55,-119.35,1187832.44610308
39.55,-119.25,1221770.51599174
39.55,-119.15,1187832.44610308
39.55,-119.05,1221770.51599174
39.55,-118.95,1152682.30228983
39.55,-118.85,81208.9529478637
39.55,-118.75,0
39.55,-118.65,0
39.55,-118.55,0
39.55,-118.45,0
39.55,-118.35,0
39.55,-118.25,0
39.55,-118.15,0
39.55,-118.05,0
39.65,-123.05,0
39.65,-122.95,0
39.65,-122.85,0
39.65,-122.75,0
39.65,-122.65,0
39.65,-122.55,0
39.65,-122.45,0
39.65,-122.35,0
39.65,-122.25,0
39.65,-122.15,0
39.65,-122.05,0
39.65,-121.95,0
39.65,-121.85,0
39.65,-121.75,0
39.65,-121.65,384072.892617171
39.65,-121.55,1187354.68380072
39.65,-121.45,1187354.68380102
39.65,-121.35,1221279.10333788
39.65,-121.25,1187354.68380072
39.65,-121.15,1221279.10333819
39.65,-121.05,1187354.68380072
39.65,-120.95,1221279.10333788
39.65,-120.85,1187354.68380102
39.65,-120.75,1221279.10333788
39.65,-120.65,1187354.68380072
39.65,-120.55,1221279.10333788
39.65,-120.45,1187354.68380072
39.65,-120.35,1221279.10333788
39.65,-120.25,1187354.68380072
39.65,-120.15,1187354.68380042
39.65,-120.05,1221279.10333788
39.65,-119.95,1187354.68380072
39.65,-119.85,1221279.10333788
39.65,-119.75,1187354.68380072
39.65,-119.65,1221279.10333788
39.65,-119.55,1187354.68380072
39.65,-119.45,1221279.10333757
39.65,-119.35,1187354.68380072
39.65,-119.25,1221279.10333788
39.65,-119.15,1187354.68380072
39.65,-119.05,1221279.10333788
39.65,-118.95,788742.754239048
39.65,-118.85,0
39.65,-118.75,0
39.65,-118.65,0
39.65,-118.55,0
39.65,-118.45,0
39.65,-118.35,0
39.65,-118.25,0
39.65,-118.15,0
39.65,-118.05,0
39.75,-123.05,0
39.75,-122.95,0
39.75,-122.85,0
39.75,-122.75,0
39.75,-122.65,0
39.75,-122.55,0
39.75,-122.45,0
39.75,-122.35,0
39.75,-122.25,0
39.75,-122.15,0
39.75,-122.05,0
39.75,-121.95,0
39.75,-121.85,0
39.75,-121.75,3633.28562638709
39.75,-121.65,984620.4047509
39.75,-121.55,1186873.30461978
39.75,-121.45,1186873.30462008
39.75,-121.35,1220783.97046606
39.75,-121.25,1186873.30461978
39.75,-121.15,1220783.97046637
39.75,-121.05,1186873.30461978
39.75,-120.95,1220783.97046606
39.75,-120.85,1186873.30462008
39.75,-120.75,1220783.97046606
39.75,-120.65,1186873.30461978
39.75,-120.55,1220783.97046606
39.75,-120.45,1186873.30461978
39.75,-120.35,1220783.97046606
39.75,-120.25,1186873.30461978
39.75,-120.15,1186873.30461948
39.75,-120.05,1220783.97046606
39.75,-119.95,1186873.30461978
39.75,-119.85,1220783.97046606
39.75,-119.75,1186873.30461978
39.75,-119.65,1220783.97046606
39.75,-119.55,1186873.30461978
39.75,-119.45,1220783.97046575
39.75,-119.35,1186873.30461978
39.75,-119.25,1220783.97046606
39.75,-119.15,1186873.30461978
39.75,-119.05,1220783.97046606
39.75,-118.95,341528.848880386
39.75,-118.85,0
39.75,-118.75,0
39.75,-118.65,0
39.75,-118.55,0
39.75,-118.45,0
39.75,-118.35,0
39.75,-118.25,0
39.75,-118.15,0
39.75,-118.05,0
39.85,-123.05,0
39.85,-122.95,0
39.85,-122.85,0
39.85,-122.75,0
39.85,-122.65,0
39.85,-122.55,0
39.85,-122.45,0
39.85,-122.35,0
39.85,-122.25,0
39.85,-122.15,0
39.85,-122.05,0
39.85,-121.95,0
39.85,-121.85,0
39.85,-121.75,371654.297120559
39.85,-121.65,1220285.11888444
39.85,-121.55,1186388.31002654
39.85,-121.45,1186388.31002684
39.85,-121.35,1220285.11888444
39.85,-121.25,1186388.31002654
39.85,-121.15,1220285.11888475
39.85,-121.05,1186388.31002654
39.85,-120.95,1220285.11888444
39.85,-120.85,1186388.31002684
39.85,-120.75,1220285.11888444
39.85,-120.65,1186388.31002654
39.85,-120.55,1220285.11888444
39.85,-120.45,1186388.31002654
39.85,-120.35,1220285.11888444
39.85,-120.25,1186388.31002654
39.85,-120.15,1186388.31002624
39.85,-120.05,1220285.11888444
39.85,-119.95,1186388.31002654
39.85,-119.85,1220285.11888444
39.85,-119.75,1186388.31002654
39.85,-119.65,1220285.11888444
39.85,-119.55,1186388.31002654
39.85,-119.45,1220285.11888413
39.85,-119.35,1186388.31002654
39.85,-119.25,1220285.11888444
39.85,-119.15,1186388.31002654
39.85,-119.05,1099225.08724908
39.85,-118.95,14527.2037962433
39.85,-118.85,0
39.85,-118.75,0
39.85,-118.65,0
39.85,-118.55,0
39.85,-118.45,0
39.85,-118.35,0
39.85,-118.25,0
39.85,-118.15,0
39.85,-118.05,0
39.95,-123.05,0
39.95,-122.95,0
39.95,-122.85,0
39.95,-122.75,0
39.95,-122.65,0
39.95,-122.55,0
39.95,-122.45,0
39.95,-122.35,0
39.95,-122.25,0
39.95,-122.15,0
39.95,-122.05,0
39.95,-121.95,0
39.95,-121.85,6050.50868096678
39.95,-121.75,968081.388954684
39.95,-121.65,1219782.5500829
39.95,-121.55,1185899.70146949
39.95,-121.45,1185899.70146979
39.95,-121.35,1219782.5500829
39.95,-121.25,1185899.70146949
39.95,-121.15,1219782.55008321
39.95,-121.05,1185899.70146949
39.95,-120.95,1219782.5500829
39.95,-120.85,1185899.70146979
39.95,-120.75,1219782.5500829
39.95,-120.65,1185899.70146949
39.95,-120.55,1219782.5500829
39.95,-120.45,1185899.70146949
39.95,-120.35,1219782.5500829
39.95,-120.25,1185899.70146949
39.95,-120.15,1185899.70146919
39.95,-120.05,1219782.5500829
39.95,-119.95,1185899.70146949
39.95,-119.85,1219782.5500829
39.95,-119.75,1185899.70146949
39.95,-119.65,1219782.5500829
39.95,-119.55,1185899.70146949
39.95,-119.45,1219782.55008259
39.95,-119.35,1185899.70146949
39.95,-119.25,1219782.5500829
39.95,-119.15,1185899.70146949
39.95,-119.05,667976.158378732
39.95,-118.95,0
39.95,-118.85,0
39.95,-118.75,0
39.95,-118.65,0
39.95,-118.55,0
39.95,-118.45,0
39.95,-118.35,0
39.95,-118.25,0
39.95,-118.15,0
39.95,-118.05,0
40.05,-123.05,0
40.05,-122.95,0
40.05,-122.85,0
40.05,-122.75,0
40.05,-122.65,0
40.05,-122.55,0
40.05,-122.45,0
40.05,-122.35,0
40.05,-122.25,0
40.05,-122.15,0
40.05,-122.05,0
40.05,-121.95,0
40.05,-121.85,393119.827705525
40.05,-121.75,1185407.48046589
40.05,-121.65,1219276.26562206
40.05,-121.55,1185407.48046589
40.05,-121.45,1185407.48046619
40.05,-121.35,1219276.26562206
40.05,-121.25,1185407.48046589
40.05,-121.15,1219276.26562237
40.05,-121.05,1185407.48046589
40.05,-120.95,1219276.26562206
40.05,-120.85,1185407.48046619
40.05,-120.75,1219276.26562206
40.05,-120.65,1185407.48046589
40.05,-120.55,1219276.26562206
40.05,-120.45,1185407.48046589
40.05,-120.35,1219276.26562206
40.05,-120.25,1185407.48046589
40.05,-120.15,1185407.48046559
40.05,-120.05,1219276.26562206
40.05,-119.95,1185407.48046589
40.05,-119.85,1219276.26562206
40.05,-119.75,1185407.48046589
40.05,-119.65,1219276.26562206
40.05,-119.55,1185407.48046589
40.05,-119.45,1219276.26562175
40.05,-119.35,1185407.48046589
40.05,-119.25,1219276.26562206
40.05,-119.15,1185407.48046589
40.05,-119.05,221356.702984957
40.05,-118.95,0
40.05,-118.85,0
40.05,-118.75,0
40.05,-118.65,0
40.05,-118.55,0
40.05,-118.45,0
40.05,-118.35,0
40.05,-118.25,0
40.05,-118.15,0
40.05,-118.05,0
40.15,-123.05,0
40.15,-122.95,0
40.15,-122.85,0
40.15,-122.75,0
40.15,-122.65,0
40.15,-122.55,0
40.15,-122.45,0
40.15,-122.35,0
40.15,-122.25,0
40.15,-122.15,0
40.15,-122.05,0
40.15,-121.95,4836.37407557229
40.15,-121.85,990247.591973427
40.15,-121.75,1184911.64851521
40.15,-121.65,1218766.26704422
40.15,-121.55,1184911.64851521
40.15,-121.45,1184911.64851551
40.15,-121.35,1218766.26704422
40.15,-121.25,1184911.64851521
40.15,-121.15,1218766.26704453
40.15,-121.05,1184911.64851521
40.15,-120.95,1218766.26704422
40.15,-120.85,1184911.64851551
40.15,-120.75,1218766.26704422
40.15,-120.65,1184911.64851521
40.15,-120.55,1218766.26704422
40.15,-120.45,1184911.64851521
40.15,-120.35,1218766.26704422
40.15,-120.25,1184911.64851521
40.15,-120.15,1184911.64851491
40.15,-120.05,1218766.26704422
40.15,-119.95,1184911.64851521
40.15,-119.85,1218766.26704422
40.15,-119.75,1184911.64851521
40.15,-119.65,1218766.26704422
40.15,-119.55,1184911.64851521
40.15,-119.45,1218766.26704391
40.15,-119.35,1184911.64851521
40.15,-119.25,1218766.26704422
40.15,-119.15,961229.347519993
40.15,-119.05,0
40.15,-118.95,0
40.15,-118.85,0
40.15,-118.75,0
40.15,-118.65,0
40.15,-118.55,0
40.15,-118.45,0
40.15,-118.35,0
40.15,-118.25,0
40.15,-118.15,0
40.15,-118.05,0
40.25,-123.05,0
40.25,-122.95,0
40.25,-122.85,0
40.25,-122.75,0
40.25,-122.65,0
40.25,-122.55,0
40.25,-122.45,0
40.25,-122.35,0
40.25,-122.25,0
40.25,-122.15,0
40.25,-122.05,0
40.25,-121.95,381912.507595143
40.25,-121.85,1218252.55587311
40.25,-121.75,1184412.20709886
40.25,-121.65,1218252.55587311
40.25,-121.55,1184412.20709886
40.25,-121.45,1184412.20709916
40.25,-121.35,1218252.55587311
40.25,-121.25,1184412.20709886
40.25,-121.15,1218252.55587342
40.25,-121.05,1184412.20709886
40.25,-120.95,1218252.55587311
40.25,-120.85,1184412.20709916
40.25,-120.75,1218252.55587311
40.25,-120.65,1184412.20709886
40.25,-120.55,1218252.55587311
40.25,-120.45,1184412.20709886
40.25,-120.35,1218252.55587311
40.25,-120.25,1184412.20709886
40.25,-120.15,1184412.20709856
40.25,-120.05,1218252.55587311
40.25,-119.95,1184412.20709886
40.25,-119.85,1218252.55587311
40.25,-119.75,1184412.20709886
40.25,-119.65,1218252.55587311
40.25,-119.55,1184412.20709886
40.25,-119.45,1218252.5558728
40.25,-119.35,1184412.20709886
40.25,-119.25,1218252.55587311
40.25,-119.15,516065.318807361
40.25,-119.05,0
40.25,-118.95,0
40.25,-118.85,0
40.25,-118.75,0
40.25,-118.65,0
40.25,-118.55,0
40.25,-118.45,0
40.25,-118.35,0
40.25,-118.25,0
40.25,-118.15,0
40.25,-118.05,0
40.35,-123.05,0
40.35,-122.95,0
40.35,-122.85,0
40.35,-122.75,0
40.35,-122.65,0
40.35,-122.55,0
40.35,-122.45,0
40.35,-122.35,0
40.35,-122.25,0
40.35,-122.15,0
40.35,-122.05,8456.49398411983
40.35,-121.95,977329.090450421
40.35,-121.85,1217735.13371326
40.35,-121.75,1183909.15777678
40.35,-121.65,1217735.13371326
40.35,-121.55,1183909.15777678
40.35,-121.45,1183909.15777708
40.35,-121.35,1217735.13371326
40.35,-121.25,1183909.15777678
40.35,-121.15,1217735.13371357
40.35,-121.05,1183909.15777678
40.35,-120.95,1217735.13371326
40.35,-120.85,1183909.15777708
40.35,-120.75,1217735.13371326
40.35,-120.65,1183909.15777678
40.35,-120.55,1217735.13371326
40.35,-120.45,1183909.15777678
40.35,-120.35,1217735.13371326
40.35,-120.25,1183909.15777678
40.35,-120.15,1183909.15777648
40.35,-120.05,1217735.13371326
40.35,-119.95,1183909.15777678
40.35,-119.85,1217735.13371326
40.35,-119.75,1183909.15777678
40.35,-119.65,1217735.13371326
40.35,-119.55,1183909.15777678
40.35,-119.45,1217735.13371295
40.35,-119.35,1183909.15777678
40.35,-119.25,1192365.6517609
40.35,-119.15,95437.5749636381
40.35,-119.05,0
40.35,-118.95,0
40.35,-118.85,0
40.35,-118.75,0
40.35,-118.65,0
40.35,-118.55,0
40.35,-118.45,0
40.35,-118.35,0
40.35,-118.25,0
40.35,-118.15,0
40.35,-118.05,0
40.45,-123.05,0
40.45,-122.95,0
40.45,-122.85,0
40.45,-122.75,0
40.45,-122.65,0
40.45,-122.55,0
40.45,-122.45,0
40.45,-122.35,0
40.45,-122.25,0
40.45,-122.15,0
40.45,-122.05,404530.447126891
40.45,-121.95,1183402.50204284
40.45,-121.85,1217214.00210121
40.45,-121.75,1183402.50204284
40.45,-121.65,1217214.00210121
40.45,-121.55,1183402.50204284
40.45,-121.45,1183402.50204315
40.45,-121.35,1217214.00210121
40.45,-121.25,1183402.50204284
40.45,-121.15,1217214.00210152
40.45,-121.05,1183402.50204284
40.45,-120.95,1217214.00210121
40.45,-120.85,1183402.50204315
40.45,-120.75,1217214.00210121
40.45,-120.65,1183402.50204284
40.45,-120.55,1217214.00210121
40.45,-120.45,1183402.50204284
40.45,-120.35,1217214.00210121
40.45,-120.25,1183402.50204284
40.45,-120.15,1183402.50204254
40.45,-120.05,1217214.00210121
40.45,-119.95,1183402.50204284
40.45,-119.85,1217214.00210121
40.45,-119.75,1183402.50204284
40.45,-119.65,1217214.00210121
40.45,-119.55,1183402.50204284
40.45,-119.45,1217214.0021009
40.45,-119.35,1183402.50204284
40.45,-119.25,840457.287165122
40.45,-119.15,0
40.45,-119.05,0
40.45,-118.95,0
40.45,-118.85,0
40.45,-118.75,0
40.45,-118.65,0
40.45,-118.55,0
40.45,-118.45,0
40.45,-118.35,0
40.45,-118.25,0
40.45,-118.15,0
40.45,-118.05,0
40.55,-123.05,0
40.55,-122.95,0
40.55,-122.85,0
40.55,-122.75,0
40.55,-122.65,0
40.55,-122.55,0
40.55,-122.45,0
40.55,-122.35,0
40.55,-122.25,0
40.55,-122.15,6035.1644972922
40.55,-122.05,999423.240751589
40.55,-121.95,1182892.24146927
40.55,-121.85,1216689.16265411
40.55,-121.75,1182892.24146927
40.55,-121.65,1216689.16265411
40.55,-121.55,1182892.24146927
40.55,-121.45,1182892.24146957
40.55,-121.35,1216689.16265411
40.55,-121.25,1182892.24146927
40.55,-121.15,1216689.16265442
40.55,-121.05,1182892.24146927
40.55,-120.95,1216689.16265411
40.55,-120.85,1182892.24146957
40.55,-120.75,1216689.16265411
40.55,-120.65,1182892.24146927
40.55,-120.55,1216689.16265411
40.55,-120.45,1182892.24146927
40.55,-120.35,1216689.16265411
40.55,-120.25,1182892.24146927
40.55,-120.15,1182892.24146897
40.55,-120.05,1216689.16265411
40.55,-119.95,1182892.24146927
40.55,-119.85,1216689.16265411
40.55,-119.75,1182892.24146927
40.55,-119.65,1216689.16265411
40.55,-119.55,1182892.24146927
40.55,-119.45,1216689.1626538
40.55,-119.35,1182892.24146927
40.55,-119.25,395906.791022368
40.55,-119.15,0
40.55,-119.05,0
40.55,-118.95,0
40.55,-118.85,0
40.55,-118.75,0
40.55,-118.65,0
40.55,-118.55,0
40.55,-118.45,0
40.55,-118.35,0
40.55,-118.25,0
40.55,-118.15,0
40.55,-118.05,0
40.65,-123.05,0
40.65,-122.95,0
40.65,-122.85,0
40.65,-122.75,0
40.65,-122.65,0
40.65,-122.55,0
40.65,-122.45,0
40.65,-122.35,0
40.65,-122.25,0
40.65,-122.15,392115.278289168
40.65,-122.05,1216160.61697071
40.65,-121.95,1182378.37761042
40.65,-121.85,1216160.61697071
40.65,-121.75,1182378.37761042
40.65,-121.65,1216160.61697071
40.65,-121.55,1182378.37761042
40.65,-121.45,1182378.37761072
40.65,-121.35,1216160.61697071
40.65,-121.25,1182378.37761042
40.65,-121.15,1216160.61697102
40.65,-121.05,1182378.37761042
40.65,-120.95,1216160.61697071
40.65,-120.85,1182378.37761072
40.65,-120.75,1216160.61697071
40.65,-120.65,1182378.37761042
40.65,-120.55,1216160.61697071
40.65,-120.45,1182378.37761042
40.65,-120.35,1216160.61697071
40.65,-120.25,1182378.37761042
40.65,-120.15,1182378.37761011
40.65,-120.05,1216160.61697071
40.65,-119.95,1182378.37761042
40.65,-119.85,1216160.61697071
40.65,-119.75,1182378.37761042
40.65,-119.65,1216160.61697071
40.65,-119.55,1182378.37761042
40.65,-119.45,1216160.6169704
40.65,-119.35,1100335.79630684
40.65,-119.25,34988.7479088796
40.65,-119.15,0
40.65,-119.05,0
40.65,-118.95,0
40.65,-118.85,0
40.65,-118.75,0
40.65,-118.65,0
40.65,-118.55,0
40.65,-118.45,0
40.65,-118.35,0
40.65,-118.25,0
40.65,-118.15,0
40.65,-118.05,0
40.75,-123.05,0
40.75,-122.95,0
40.75,-122.85,0
40.75,-122.75,0
40.75,-122.65,0
40.75,-122.55,0
40.75,-122.45,0
40.75,-122.35,0
40.75,-122.25,15825.9997166147
40.75,-122.15,1025083.444084
40.75,-122.05,1259043.66543964
40.75,-121.95,1224070.23028854
40.75,-121.85,1259043.66543964
40.75,-121.75,1224070.23028854
40.75,-121.65,1259043.66543964
40.75,-121.55,1224070.23028854
40.75,-121.45,1224070.23028885
40.75,-121.35,1259043.66543964
40.75,-121.25,1224070.23028854
40.75,-121.15,1259043.66543996
40.75,-121.05,1224070.23028854
40.75,-120.95,1259043.66543964
40.75,-120.85,1224070.23028885
40.75,-120.75,1259043.66543964
40.75,-120.65,1224070.23028854
40.75,-120.55,1259043.66543964
40.75,-120.45,1224070.23028854
40.75,-120.35,1259043.66543964
40.75,-120.25,1224070.23028854
40.75,-120.15,1224070.23028822
40.75,-120.05,1259043.66543964
40.75,-119.95,1224070.23028854
40.75,-119.85,1259043.66543964
40.75,-119.75,1224070.23028854
40.75,-119.65,1259043.66543964
40.75,-119.55,1224070.23028854
40.75,-119.45,1259043.66543932
40.75,-119.35,705498.605634279
40.75,-119.25,0
40.75,-119.15,0
40.75,-119.05,0
40.75,-118.95,0
40.75,-118.85,0
40.75,-118.75,0
40.75,-118.65,0
40.75,-118.55,0
40.75,-118.45,0
40.75,-118.35,0
40.75,-118.25,0
40.75,-118.15,0
40.75,-118.05,0
40.85,-123.05,0
40.85,-122.95,0
40.85,-122.85,0
40.85,-122.75,0
40.85,-122.65,0
40.85,-122.55,0
40.85,-122.45,0
40.85,-122.35,0
40.85,-122.25,439282.079610033
40.85,-122.15,1181339.84626097
40.85,-122.05,1215092.41329699
40.85,-121.95,1181339.84626097
40.85,-121.85,1215092.41329699
40.85,-121.75,1181339.84626097
40.85,-121.65,1215092.41329699
40.85,-121.55,1181339.84626097
40.85,-121.45,1181339.84626127
40.85,-121.35,1215092.41329699
40.85,-121.25,1181339.84626097
40.85,-121.15,1215092.4132973
40.85,-121.05,1181339.84626097
40.85,-120.95,1215092.41329699
40.85,-120.85,1181339.84626127
40.85,-120.75,1215092.41329699
40.85,-120.65,1181339.84626097
40.85,-120.55,1215092.41329699
40.85,-120.45,1181339.84626097
40.85,-120.35,1215092.41329699
40.85,-120.25,1181339.84626097
40.85,-120.15,1181339.84626067
40.85,-120.05,1215092.41329699
40.85,-119.95,1181339.84626097
40.85,-119.85,1215092.41329699
40.85,-119.75,1181339.84626097
40.85,-119.65,1215092.41329699
40.85,-119.55,1181339.84626097
40.85,-119.45,1215092.41329668
40.85,-119.35,227829.827493186
40.85,-119.25,0
40.85,-119.15,0
40.85,-119.05,0
40.85,-118.95,0
40.85,-118.85,0
40.85,-118.75,0
40.85,-118.65,0
40.85,-118.55,0
40.85,-118.45,0
40.85,-118.35,0
40.85,-118.25,0
40.85,-118.15,0
40.85,-118.05,0
40.95,-123.05,0
40.95,-122.95,0
40.95,-122.85,0
40.95,-122.75,0
40.95,-122.65,0
40.95,-122.55,0
40.95,-122.45,0
40.95,-122.35,0
40.95,-122.25,69329.5235998523
40.95,-122.15,456662.197911185
40.95,-122.05,913324.39582237
40.95,-121.95,1174790.61467917
40.95,-121.85,1214552.75856062
40.95,-121.75,1180815.18193393
40.95,-121.65,1214552.75856062
40.95,-121.55,1180815.18193393
40.95,-121.45,1180815.18193424
40.95,-121.35,1214552.75856062
40.95,-121.25,1180815.18193393
40.95,-121.15,1214552.75856093
40.95,-121.05,1180815.18193393
40.95,-120.95,1214552.75856062
40.95,-120.85,1180815.18193424
40.95,-120.75,1214552.75856062
40.95,-120.65,1180815.18193393
40.95,-120.55,1214552.75856062
40.95,-120.45,1180815.18193393
40.95,-120.35,1214552.75856062
40.95,-120.25,1180815.18193393
40.95,-120.15,1180815.18193363
40.95,-120.05,1214552.75856062
40.95,-119.95,1180815.18193393
40.95,-119.85,1214552.75856062
40.95,-119.75,1180815.18193393
40.95,-119.65,1214552.75856062
40.95,-119.55,1180815.18193393
40.95,-119.45,998873.250839778
40.95,-119.35,0
40.95,-119.25,0
40.95,-119.15,0
40.95,-119.05,0
40.95,-118.95,0
40.95,-118.85,0
40.95,-118.75,0
40.95,-118.65,0
40.95,-118.55,0
40.95,-118.45,0
40.95,-118.35,0
40.95,-118.25,0
40.95,-118.15,0
40.95,-118.05,0
41.05,-123.05,0
41.05,-122.95,0
41.05,-122.85,0
41.05,-122.75,0
41.05,-122.65,0
41.05,-122.55,0
41.05,-122.45,0
41.05,-122.35,0
41.05,-122.25,0
41.05,-122.15,0
41.05,-122.05,0
41.05,-121.95,144524.929059025
41.05,-121.85,588939.085915528
41.05,-121.75,1002039.50814258
41.05,-121.65,1214009.40409581
41.05,-121.55,1180286.92064871
41.05,-121.45,1180286.92064901
41.05,-121.35,1214009.40409581
41.05,-121.25,1180286.92064871
41.05,-121.15,1214009.40409612
41.05,-121.05,1180286.92064871
41.05,-120.95,1214009.40409581
41.05,-120.85,1180286.92064901
41.05,-120.75,1214009.40409581
41.05,-120.65,1180286.92064871
41.05,-120.55,1214009.40409581
41.05,-120.45,1180286.92064871
41.05,-120.35,1214009.40409581
41.05,-120.25,1180286.92064871
41.05,-120.15,1180286.92064841
41.05,-120.05,1214009.40409581
41.05,-119.95,1180286.92064871
41.05,-119.85,1214009.40409581
41.05,-119.75,1180286.92064871
41.05,-119.65,1214009.40409581
41.05,-119.55,1180286.92064871
41.05,-119.45,554012.228059456
41.05,-119.35,0
41.05,-119.25,0
41.05,-119.15,0
41.05,-119.05,0
41.05,-118.95,0
41.05,-118.85,0
41.05,-118.75,0
41.05,-118.65,0
41.05,-118.55,0
41.05,-118.45,0
41.05,-118.35,0
41.05,-118.25,0
41.05,-118.15,0
41.05,-118.05,0
