Var1,Var2,Var3
36.05,-122.95,0
36.05,-122.85,0
36.05,-122.75,0
36.05,-122.65,0
36.05,-122.55,0
36.05,-122.45,0
36.05,-122.35,0
36.05,-122.25,0
36.05,-122.15,0
36.05,-122.05,0
36.05,-121.95,0
36.05,-121.85,0
36.05,-121.75,0
36.05,-121.65,0
36.05,-121.55,0
36.05,-121.45,0
36.05,-121.35,0
36.05,-121.25,0
36.05,-121.15,0
36.05,-121.05,0
36.05,-120.95,0
36.05,-120.85,0
36.05,-120.75,0
36.05,-120.65,0
36.05,-120.55,0
36.05,-120.45,0
36.05,-120.35,0
36.05,-120.25,0
36.05,-120.15,0
36.05,-120.05,0
36.05,-119.95,0
36.05,-119.85,0
36.05,-119.75,0
36.05,-119.65,0
36.05,-119.55,0
36.05,-119.45,0
36.05,-119.35,0
36.05,-119.25,0
36.05,-119.15,0
36.05,-119.05,0
36.05,-118.95,0
36.05,-118.85,0
36.05,-118.75,0
36.05,-118.65,0
36.05,-118.55,0
36.05,-118.45,0
36.05,-118.35,0
36.05,-118.25,0
36.05,-118.15,0
36.05,-118.05,0
36.05,-117.95,0
36.05,-117.85,0
36.05,-117.75,0
36.05,-117.65,0
36.05,-117.55,0
36.05,-117.45,0
36.05,-117.35,0
36.05,-117.25,0
36.05,-117.15,0
36.05,-117.05,0
36.05,-116.95,0
36.15,-122.95,0
36.15,-122.85,0
36.15,-122.75,0
36.15,-122.65,0
36.15,-122.55,0
36.15,-122.45,0
36.15,-122.35,0
36.15,-122.25,0
36.15,-122.15,0
36.15,-122.05,0
36.15,-121.95,0
36.15,-121.85,0
36.15,-121.75,0
36.15,-121.65,0
36.15,-121.55,0
36.15,-121.45,0
36.15,-121.35,0
36.15,-121.25,0
36.15,-121.15,0
36.15,-121.05,0
36.15,-120.95,0
36.15,-120.85,0
36.15,-120.75,0
36.15,-120.65,0
36.15,-120.55,0
36.15,-120.45,0
36.15,-120.35,0
36.15,-120.25,0
36.15,-120.15,0
36.15,-120.05,0
36.15,-119.95,0
36.15,-119.85,0
36.15,-119.75,0
36.15,-119.65,0
36.15,-119.55,0
36.15,-119.45,0
36.15,-119.35,0
36.15,-119.25,0
36.15,-119.15,0
36.15,-119.05,0
36.15,-118.95,0
36.15,-118.85,0
36.15,-118.75,0
36.15,-118.65,0
36.15,-118.55,0
36.15,-118.45,0
36.15,-118.35,0
36.15,-118.25,0
36.15,-118.15,0
36.15,-118.05,0
36.15,-117.95,0
36.15,-117.85,0
36.15,-117.75,0
36.15,-117.65,0
36.15,-117.55,0
36.15,-117.45,0
36.15,-117.35,0
36.15,-117.25,0
36.15,-117.15,0
36.15,-117.05,0
36.15,-116.95,0
36.25,-122.95,0
36.25,-122.85,0
36.25,-122.75,0
36.25,-122.65,0
36.25,-122.55,0
36.25,-122.45,0
36.25,-122.35,0
36.25,-122.25,0
36.25,-122.15,0
36.25,-122.05,0
36.25,-121.95,0
36.25,-121.85,0
36.25,-121.75,0
36.25,-121.65,0
36.25,-121.55,0
36.25,-121.45,0
36.25,-121.35,0
36.25,-121.25,0
36.25,-121.15,0
36.25,-121.05,0
36.25,-120.95,0
36.25,-120.85,0
36.25,-120.75,0
36.25,-120.65,0
36.25,-120.55,0
36.25,-120.45,0
36.25,-120.35,0
36.25,-120.25,0
36.25,-120.15,0
36.25,-120.05,0
36.25,-119.95,0
36.25,-119.85,0
36.25,-119.75,0
36.25,-119.65,0
36.25,-119.55,0
36.25,-119.45,0
36.25,-119.35,0
36.25,-119.25,0
36.25,-119.15,0
36.25,-119.05,0
36.25,-118.95,0
36.25,-118.85,0
36.25,-118.75,0
36.25,-118.65,0
36.25,-118.55,0
36.25,-118.45,0
36.25,-118.35,0
36.25,-118.25,0
36.25,-118.15,0
36.25,-118.05,0
36.25,-117.95,0
36.25,-117.85,0
36.25,-117.75,0
36.25,-117.65,0
36.25,-117.55,0
36.25,-117.45,0
36.25,-117.35,0
36.25,-117.25,0
36.25,-117.15,0
36.25,-117.05,0
36.25,-116.95,0
36.35,-122.95,0
36.35,-122.85,0
36.35,-122.75,0
36.35,-122.65,0
36.35,-122.55,0
36.35,-122.45,0
36.35,-122.35,0
36.35,-122.25,0
36.35,-122.15,0
36.35,-122.05,0
36.35,-121.95,0
36.35,-121.85,0
36.35,-121.75,0
36.35,-121.65,0
36.35,-121.55,0
36.35,-121.45,0
36.35,-121.35,0
36.35,-121.25,0
36.35,-121.15,0
36.35,-121.05,0
36.35,-120.95,0
36.35,-120.85,0
36.35,-120.75,0
36.35,-120.65,0
36.35,-120.55,0
36.35,-120.45,0
36.35,-120.35,0
36.35,-120.25,0
36.35,-120.15,0
36.35,-120.05,0
36.35,-119.95,0
36.35,-119.85,0
36.35,-119.75,0
36.35,-119.65,0
36.35,-119.55,0
36.35,-119.45,0
36.35,-119.35,0
36.35,-119.25,0
36.35,-119.15,0
36.35,-119.05,0
36.35,-118.95,0
36.35,-118.85,0
36.35,-118.75,0
36.35,-118.65,0
36.35,-118.55,0
36.35,-118.45,0
36.35,-118.35,0
36.35,-118.25,0
36.35,-118.15,0
36.35,-118.05,0
36.35,-117.95,0
36.35,-117.85,0
36.35,-117.75,0
36.35,-117.65,0
36.35,-117.55,0
36.35,-117.45,0
36.35,-117.35,0
36.35,-117.25,0
36.35,-117.15,0
36.35,-117.05,0
36.35,-116.95,0
36.45,-122.95,0
36.45,-122.85,0
36.45,-122.75,0
36.45,-122.65,0
36.45,-122.55,0
36.45,-122.45,0
36.45,-122.35,0
36.45,-122.25,0
36.45,-122.15,0
36.45,-122.05,0
36.45,-121.95,0
36.45,-121.85,0
36.45,-121.75,0
36.45,-121.65,0
36.45,-121.55,0
36.45,-121.45,0
36.45,-121.35,0
36.45,-121.25,0
36.45,-121.15,0
36.45,-121.05,0
36.45,-120.95,0
36.45,-120.85,0
36.45,-120.75,0
36.45,-120.65,0
36.45,-120.55,0
36.45,-120.45,0
36.45,-120.35,0
36.45,-120.25,0
36.45,-120.15,0
36.45,-120.05,0
36.45,-119.95,11296568.7581988
36.45,-119.85,5337939.08354447
36.45,-119.75,0
36.45,-119.65,0
36.45,-119.55,0
36.45,-119.45,0
36.45,-119.35,0
36.45,-119.25,0
36.45,-119.15,0
36.45,-119.05,0
36.45,-118.95,0
36.45,-118.85,0
36.45,-118.75,0
36.45,-118.65,0
36.45,-118.55,0
36.45,-118.45,0
36.45,-118.35,0
36.45,-118.25,0
36.45,-118.15,0
36.45,-118.05,0
36.45,-117.95,0
36.45,-117.85,0
36.45,-117.75,0
36.45,-117.65,0
36.45,-117.55,0
36.45,-117.45,0
36.45,-117.35,0
36.45,-117.25,0
36.45,-117.15,0
36.45,-117.05,0
36.45,-116.95,0
36.55,-122.95,0
36.55,-122.85,0
36.55,-122.75,0
36.55,-122.65,0
36.55,-122.55,0
36.55,-122.45,0
36.55,-122.35,0
36.55,-122.25,0
36.55,-122.15,0
36.55,-122.05,0
36.55,-121.95,0
36.55,-121.85,0
36.55,-121.75,0
36.55,-121.65,0
36.55,-121.55,0
36.55,-121.45,0
36.55,-121.35,0
36.55,-121.25,0
36.55,-121.15,0
36.55,-121.05,0
36.55,-120.95,0
36.55,-120.85,0
36.55,-120.75,0
36.55,-120.65,0
36.55,-120.55,0
36.55,-120.45,0
36.55,-120.35,0
36.55,-120.25,0
36.55,-120.15,0
36.55,-120.05,0
36.55,-119.95,85870829.0815259
36.55,-119.85,114780266.546918
36.55,-119.75,77540991.1677688
36.55,-119.65,30379408.8619379
36.55,-119.55,734985.69827269
36.55,-119.45,0
36.55,-119.35,0
36.55,-119.25,0
36.55,-119.15,0
36.55,-119.05,0
36.55,-118.95,0
36.55,-118.85,0
36.55,-118.75,0
36.55,-118.65,0
36.55,-118.55,0
36.55,-118.45,0
36.55,-118.35,0
36.55,-118.25,0
36.55,-118.15,0
36.55,-118.05,0
36.55,-117.95,0
36.55,-117.85,0
36.55,-117.75,0
36.55,-117.65,0
36.55,-117.55,0
36.55,-117.45,0
36.55,-117.35,0
36.55,-117.25,0
36.55,-117.15,0
36.55,-117.05,0
36.55,-116.95,0
36.65,-122.95,0
36.65,-122.85,0
36.65,-122.75,0
36.65,-122.65,0
36.65,-122.55,0
36.65,-122.45,0
36.65,-122.35,0
36.65,-122.25,0
36.65,-122.15,0
36.65,-122.05,0
36.65,-121.95,0
36.65,-121.85,0
36.65,-121.75,0
36.65,-121.65,0
36.65,-121.55,0
36.65,-121.45,0
36.65,-121.35,0
36.65,-121.25,0
36.65,-121.15,0
36.65,-121.05,0
36.65,-120.95,0
36.65,-120.85,0
36.65,-120.75,0
36.65,-120.65,0
36.65,-120.55,0
36.65,-120.45,0
36.65,-120.35,0
36.65,-120.25,0
36.65,-120.15,0
36.65,-120.05,23879700.2373182
36.65,-119.95,123072301.223133
36.65,-119.85,120010801.192706
36.65,-119.75,123439681.226784
36.65,-119.65,120010801.192706
36.65,-119.55,107519881.068568
36.65,-119.45,60127860.5975703
36.65,-119.35,16164720.1606461
36.65,-119.25,0
36.65,-119.15,0
36.65,-119.05,0
36.65,-118.95,0
36.65,-118.85,0
36.65,-118.75,0
36.65,-118.65,0
36.65,-118.55,0
36.65,-118.45,0
36.65,-118.35,0
36.65,-118.25,0
36.65,-118.15,0
36.65,-118.05,0
36.65,-117.95,0
36.65,-117.85,0
36.65,-117.75,0
36.65,-117.65,0
36.65,-117.55,0
36.65,-117.45,0
36.65,-117.35,0
36.65,-117.25,0
36.65,-117.15,0
36.65,-117.05,0
36.65,-116.95,0
36.75,-122.95,0
36.75,-122.85,0
36.75,-122.75,0
36.75,-122.65,0
36.75,-122.55,0
36.75,-122.45,0
36.75,-122.35,0
36.75,-122.25,0
36.75,-122.15,0
36.75,-122.05,0
36.75,-121.95,0
36.75,-121.85,0
36.75,-121.75,0
36.75,-121.65,0
36.75,-121.55,0
36.75,-121.45,0
36.75,-121.35,0
36.75,-121.25,0
36.75,-121.15,0
36.75,-121.05,0
36.75,-120.95,0
36.75,-120.85,0
36.75,-120.75,0
36.75,-120.65,0
36.75,-120.55,0
36.75,-120.45,0
36.75,-120.35,0
36.75,-120.25,0
36.75,-120.15,0
36.75,-120.05,84593610.9981193
36.75,-119.95,123401389.126087
36.75,-119.85,119973572.761473
36.75,-119.75,123401389.126087
36.75,-119.65,119973572.761473
36.75,-119.55,123401389.126087
36.75,-119.45,119973572.761473
36.75,-119.35,122789279.060946
36.75,-119.25,89857757.558083
36.75,-119.15,46030676.8962387
36.75,-119.05,5386568.5729641
36.75,-118.95,0
36.75,-118.85,0
36.75,-118.75,0
36.75,-118.65,0
36.75,-118.55,0
36.75,-118.45,0
36.75,-118.35,0
36.75,-118.25,0
36.75,-118.15,0
36.75,-118.05,0
36.75,-117.95,0
36.75,-117.85,0
36.75,-117.75,0
36.75,-117.65,0
36.75,-117.55,0
36.75,-117.45,0
36.75,-117.35,0
36.75,-117.25,0
36.75,-117.15,0
36.75,-117.05,0
36.75,-116.95,0
36.85,-122.95,0
36.85,-122.85,0
36.85,-122.75,0
36.85,-122.65,0
36.85,-122.55,0
36.85,-122.45,0
36.85,-122.35,0
36.85,-122.25,0
36.85,-122.15,0
36.85,-122.05,0
36.85,-121.95,0
36.85,-121.85,0
36.85,-121.75,0
36.85,-121.65,0
36.85,-121.55,0
36.85,-121.45,0
36.85,-121.35,0
36.85,-121.25,0
36.85,-121.15,0
36.85,-121.05,0
36.85,-120.95,0
36.85,-120.85,0
36.85,-120.75,0
36.85,-120.65,0
36.85,-120.55,0
36.85,-120.45,0
36.85,-120.35,0
36.85,-120.25,0
36.85,-120.15,25822950.552187
36.85,-120.05,119813595.216041
36.85,-119.95,123362721.121348
36.85,-119.85,119935978.867977
36.85,-119.75,123362721.121348
36.85,-119.65,119935978.867977
36.85,-119.55,123362721.121348
36.85,-119.45,119935978.867977
36.85,-119.35,123362721.121317
36.85,-119.25,119935978.867977
36.85,-119.15,123362721.121348
36.85,-119.05,114183947.228391
36.85,-118.95,76734549.7451244
36.85,-118.85,29494460.10937
36.85,-118.75,611918.259530497
36.85,-118.65,0
36.85,-118.55,0
36.85,-118.45,0
36.85,-118.35,0
36.85,-118.25,0
36.85,-118.15,0
36.85,-118.05,0
36.85,-117.95,0
36.85,-117.85,0
36.85,-117.75,0
36.85,-117.65,0
36.85,-117.55,0
36.85,-117.45,0
36.85,-117.35,0
36.85,-117.25,0
36.85,-117.15,0
36.85,-117.05,0
36.85,-116.95,0
36.95,-122.95,0
36.95,-122.85,0
36.95,-122.75,0
36.95,-122.65,0
36.95,-122.55,0
36.95,-122.45,0
36.95,-122.35,0
36.95,-122.25,0
36.95,-122.15,0
36.95,-122.05,0
36.95,-121.95,0
36.95,-121.85,0
36.95,-121.75,0
36.95,-121.65,0
36.95,-121.55,0
36.95,-121.45,0
36.95,-121.35,0
36.95,-121.25,0
36.95,-121.15,0
36.95,-121.05,0
36.95,-120.95,0
36.95,-120.85,0
36.95,-120.75,0
36.95,-120.65,0
36.95,-120.55,0
36.95,-120.45,0
36.95,-120.35,0
36.95,-120.25,0
36.95,-120.15,86742546.8552287
36.95,-120.05,119898019.63061
36.95,-119.95,123323677.334373
36.95,-119.85,119898019.630641
36.95,-119.75,123323677.334373
36.95,-119.65,119898019.630641
36.95,-119.55,123323677.334373
36.95,-119.45,119898019.630641
36.95,-119.35,123323677.334342
36.95,-119.25,119898019.630641
36.95,-119.15,123323677.334373
36.95,-119.05,119898019.630641
36.95,-118.95,123323677.334373
36.95,-118.85,119898019.630641
36.95,-118.75,104237870.127863
36.95,-118.65,61539493.7491961
36.95,-118.55,15293114.7488062
36.95,-118.45,0
36.95,-118.35,0
36.95,-118.25,0
36.95,-118.15,0
36.95,-118.05,0
36.95,-117.95,0
36.95,-117.85,0
36.95,-117.75,0
36.95,-117.65,0
36.95,-117.55,0
36.95,-117.45,0
36.95,-117.35,0
36.95,-117.25,0
36.95,-117.15,0
36.95,-117.05,0
36.95,-116.95,0
37.05,-122.95,0
37.05,-122.85,0
37.05,-122.75,0
37.05,-122.65,0
37.05,-122.55,0
37.05,-122.45,0
37.05,-122.35,0
37.05,-122.25,0
37.05,-122.15,0
37.05,-122.05,0
37.05,-121.95,0
37.05,-121.85,0
37.05,-121.75,0
37.05,-121.65,0
37.05,-121.55,0
37.05,-121.45,0
37.05,-121.35,0
37.05,-121.25,0
37.05,-121.15,0
37.05,-121.05,0
37.05,-120.95,0
37.05,-120.85,0
37.05,-120.75,0
37.05,-120.65,0
37.05,-120.55,0
37.05,-120.45,0
37.05,-120.35,0
37.05,-120.25,28008030.8080743
37.05,-120.15,119859695.161191
37.05,-120.05,119859695.161161
37.05,-119.95,123284257.880083
37.05,-119.85,119859695.161191
37.05,-119.75,123284257.880083
37.05,-119.65,119859695.161191
37.05,-119.55,123284257.880083
37.05,-119.45,119859695.161191
37.05,-119.35,123284257.880051
37.05,-119.25,119859695.161191
37.05,-119.15,123284257.880083
37.05,-119.05,119859695.161191
37.05,-118.95,123284257.880083
37.05,-118.85,119859695.161191
37.05,-118.75,119859695.161191
37.05,-118.65,123284257.880083
37.05,-118.55,119248166.104247
37.05,-118.45,92218581.787284
37.05,-118.35,44519315.3455854
37.05,-118.25,5626067.32389266
37.05,-118.15,0
37.05,-118.05,0
37.05,-117.95,0
37.05,-117.85,0
37.05,-117.75,0
37.05,-117.65,0
37.05,-117.55,0
37.05,-117.45,0
37.05,-117.35,0
37.05,-117.25,0
37.05,-117.15,0
37.05,-117.05,0
37.05,-116.95,0
37.15,-122.95,0
37.15,-122.85,0
37.15,-122.75,0
37.15,-122.65,0
37.15,-122.55,0
37.15,-122.45,0
37.15,-122.35,0
37.15,-122.25,0
37.15,-122.15,0
37.15,-122.05,0
37.15,-121.95,0
37.15,-121.85,0
37.15,-121.75,0
37.15,-121.65,0
37.15,-121.55,0
37.15,-121.45,0
37.15,-121.35,0
37.15,-121.25,0
37.15,-121.15,0
37.15,-121.05,0
37.15,-120.95,0
37.15,-120.85,0
37.15,-120.75,0
37.15,-120.65,0
37.15,-120.55,0
37.15,-120.45,0
37.15,-120.35,0
37.15,-120.25,89132156.1911336
37.15,-120.15,119821005.579302
37.15,-120.05,119821005.579271
37.15,-119.95,123244462.881567
37.15,-119.85,119821005.579302
37.15,-119.75,123244462.881567
37.15,-119.65,119821005.579302
37.15,-119.55,123244462.881567
37.15,-119.45,119821005.579302
37.15,-119.35,123244462.881536
37.15,-119.25,119821005.579302
37.15,-119.15,123244462.881567
37.15,-119.05,119821005.579302
37.15,-118.95,123244462.881567
37.15,-118.85,119821005.579302
37.15,-118.75,119821005.579302
37.15,-118.65,123244462.881567
37.15,-118.55,119821005.579302
37.15,-118.45,123244462.881567
37.15,-118.35,119821005.579302
37.15,-118.25,117131146.270379
37.15,-118.15,74093397.327609
37.15,-118.05,30077517.7270492
37.15,-117.95,615667.346658736
37.15,-117.85,0
37.15,-117.75,0
37.15,-117.65,0
37.15,-117.55,0
37.15,-117.45,0
37.15,-117.35,0
37.15,-117.25,0
37.15,-117.15,0
37.15,-117.05,0
37.15,-116.95,0
37.25,-122.95,0
37.25,-122.85,0
37.25,-122.75,0
37.25,-122.65,0
37.25,-122.55,0
37.25,-122.45,0
37.25,-122.35,0
37.25,-122.25,0
37.25,-122.15,0
37.25,-122.05,0
37.25,-121.95,0
37.25,-121.85,0
37.25,-121.75,0
37.25,-121.65,0
37.25,-121.55,0
37.25,-121.45,0
37.25,-121.35,0
37.25,-121.25,0
37.25,-121.15,0
37.25,-121.05,0
37.25,-120.95,0
37.25,-120.85,0
37.25,-120.75,0
37.25,-120.65,0
37.25,-120.55,0
37.25,-120.45,0
37.25,-120.35,27012052.2159422
37.25,-120.25,123082065.979429
37.25,-120.15,119781951.002821
37.25,-120.05,119781951.00279
37.25,-119.95,123204292.460044
37.25,-119.85,119781951.002821
37.25,-119.75,123204292.460044
37.25,-119.65,119781951.002821
37.25,-119.55,123204292.460044
37.25,-119.45,119781951.002821
37.25,-119.35,123204292.460013
37.25,-119.25,119781951.002821
37.25,-119.15,123204292.460044
37.25,-119.05,119781951.002821
37.25,-118.95,123204292.460044
37.25,-118.85,119781951.002821
37.25,-118.75,119781951.002821
37.25,-118.65,123204292.460044
37.25,-118.55,119781951.002821
37.25,-118.45,123204292.460044
37.25,-118.35,119781951.002821
37.25,-118.25,123204292.460044
37.25,-118.15,119781951.002821
37.25,-118.05,123204292.460044
37.25,-117.95,64993280.9262375
37.25,-117.85,0
37.25,-117.75,0
37.25,-117.65,0
37.25,-117.55,0
37.25,-117.45,0
37.25,-117.35,0
37.25,-117.25,0
37.25,-117.15,0
37.25,-117.05,0
37.25,-116.95,0
37.35,-122.95,0
37.35,-122.85,0
37.35,-122.75,0
37.35,-122.65,0
37.35,-122.55,0
37.35,-122.45,0
37.35,-122.35,0
37.35,-122.25,0
37.35,-122.15,0
37.35,-122.05,0
37.35,-121.95,0
37.35,-121.85,0
37.35,-121.75,0
37.35,-121.65,0
37.35,-121.55,0
37.35,-121.45,0
37.35,-121.35,0
37.35,-121.25,0
37.35,-121.15,0
37.35,-121.05,0
37.35,-120.95,0
37.35,-120.85,0
37.35,-120.75,0
37.35,-120.65,0
37.35,-120.55,0
37.35,-120.45,0
37.35,-120.35,87851918.5539457
37.35,-120.25,123163746.734878
37.35,-120.15,119742531.547798
37.35,-120.05,119742531.547768
37.35,-119.95,123163746.734878
37.35,-119.85,119742531.547798
37.35,-119.75,123163746.734878
37.35,-119.65,119742531.547798
37.35,-119.55,123163746.734878
37.35,-119.45,119742531.547798
37.35,-119.35,123163746.734847
37.35,-119.25,119742531.547798
37.35,-119.15,123163746.734878
37.35,-119.05,119742531.547798
37.35,-118.95,123163746.734878
37.35,-118.85,119742531.547798
37.35,-118.75,119742531.547798
37.35,-118.65,123163746.734878
37.35,-118.55,119742531.547798
37.35,-118.45,123163746.734878
37.35,-118.35,119742531.547798
37.35,-118.25,123163746.734878
37.35,-118.15,119742531.547798
37.35,-118.05,123163746.734878
37.35,-117.95,27686885.8224935
37.35,-117.85,0
37.35,-117.75,0
37.35,-117.65,0
37.35,-117.55,0
37.35,-117.45,0
37.35,-117.35,0
37.35,-117.25,0
37.35,-117.15,0
37.35,-117.05,0
37.35,-116.95,0
37.45,-122.95,0
37.45,-122.85,0
37.45,-122.75,0
37.45,-122.65,0
37.45,-122.55,0
37.45,-122.45,0
37.45,-122.35,0
37.45,-122.25,0
37.45,-122.15,0
37.45,-122.05,0
37.45,-121.95,0
37.45,-121.85,0
37.45,-121.75,0
37.45,-121.65,0
37.45,-121.55,0
37.45,-121.45,0
37.45,-121.35,0
37.45,-121.25,0
37.45,-121.15,0
37.45,-121.05,0
37.45,-120.95,0
37.45,-120.85,0
37.45,-120.75,0
37.45,-120.65,0
37.45,-120.55,0
37.45,-120.45,29070667.2104703
37.45,-120.35,119702747.33723
37.45,-120.25,123122825.83258
37.45,-120.15,119702747.33723
37.45,-120.05,119702747.3372
37.45,-119.95,123122825.83258
37.45,-119.85,119702747.33723
37.45,-119.75,123122825.83258
37.45,-119.65,119702747.33723
37.45,-119.55,123122825.83258
37.45,-119.45,119702747.33723
37.45,-119.35,123122825.832549
37.45,-119.25,119702747.33723
37.45,-119.15,123122825.83258
37.45,-119.05,119702747.33723
37.45,-118.95,123122825.83258
37.45,-118.85,119702747.33723
37.45,-118.75,119702747.33723
37.45,-118.65,123122825.83258
37.45,-118.55,119702747.33723
37.45,-118.45,123122825.83258
37.45,-118.35,119702747.33723
37.45,-118.25,123122825.83258
37.45,-118.15,119702747.33723
37.45,-118.05,103457374.484321
37.45,-117.95,246023.883657356
37.45,-117.85,0
37.45,-117.75,0
37.45,-117.65,0
37.45,-117.55,0
37.45,-117.45,0
37.45,-117.35,0
37.45,-117.25,0
37.45,-117.15,0
37.45,-117.05,0
37.45,-116.95,0
37.55,-122.95,0
37.55,-122.85,0
37.55,-122.75,0
37.55,-122.65,0
37.55,-122.55,0
37.55,-122.45,0
37.55,-122.35,0
37.55,-122.25,0
37.55,-122.15,0
37.55,-122.05,0
37.55,-121.95,0
37.55,-121.85,0
37.55,-121.75,0
37.55,-121.65,0
37.55,-121.55,0
37.55,-121.45,0
37.55,-121.35,0
37.55,-121.25,0
37.55,-121.15,0
37.55,-121.05,0
37.55,-120.95,0
37.55,-120.85,0
37.55,-120.75,0
37.55,-120.65,0
37.55,-120.55,0
37.55,-120.45,89991158.2539101
37.55,-120.35,119662598.492309
37.55,-120.25,123081529.877804
37.55,-120.15,119662598.492309
37.55,-120.05,119662598.492279
37.55,-119.95,123081529.877804
37.55,-119.85,119662598.492309
37.55,-119.75,123081529.877804
37.55,-119.65,119662598.492309
37.55,-119.55,123081529.877804
37.55,-119.45,119662598.492309
37.55,-119.35,123081529.877772
37.55,-119.25,119662598.492309
37.55,-119.15,123081529.877804
37.55,-119.05,119662598.492309
37.55,-118.95,123081529.877804
37.55,-118.85,119662598.492309
37.55,-118.75,119662598.492309
37.55,-118.65,123081529.877804
37.55,-118.55,119662598.492309
37.55,-118.45,123081529.877804
37.55,-118.35,119662598.492309
37.55,-118.25,123081529.877804
37.55,-118.15,119662598.492309
37.55,-118.05,58610252.3227637
37.55,-117.95,0
37.55,-117.85,0
37.55,-117.75,0
37.55,-117.65,0
37.55,-117.55,0
37.55,-117.45,0
37.55,-117.35,0
37.55,-117.25,0
37.55,-117.15,0
37.55,-117.05,0
37.55,-116.95,0
37.65,-122.95,0
37.65,-122.85,0
37.65,-122.75,0
37.65,-122.65,0
37.65,-122.55,0
37.65,-122.45,0
37.65,-122.35,0
37.65,-122.25,0
37.65,-122.15,0
37.65,-122.05,0
37.65,-121.95,0
37.65,-121.85,0
37.65,-121.75,0
37.65,-121.65,0
37.65,-121.55,0
37.65,-121.45,0
37.65,-121.35,0
37.65,-121.25,0
37.65,-121.15,0
37.65,-121.05,0
37.65,-120.95,0
37.65,-120.85,0
37.65,-120.75,0
37.65,-120.65,0
37.65,-120.55,27830444.2961124
37.65,-120.45,123039858.993339
37.65,-120.35,119622085.132413
37.65,-120.25,123039858.993339
37.65,-120.15,119622085.132413
37.65,-120.05,119622085.132383
37.65,-119.95,123039858.993339
37.65,-119.85,119622085.132413
37.65,-119.75,123039858.993339
37.65,-119.65,119622085.132413
37.65,-119.55,123039858.993339
37.65,-119.45,119622085.132413
37.65,-119.35,123039858.993308
37.65,-119.25,119622085.132413
37.65,-119.15,123039858.993339
37.65,-119.05,119622085.132413
37.65,-118.95,123039858.993339
37.65,-118.85,119622085.132413
37.65,-118.75,119622085.132413
37.65,-118.65,123039858.993339
37.65,-118.55,119622085.132413
37.65,-118.45,123039858.993339
37.65,-118.35,119622085.132413
37.65,-118.25,123039858.993339
37.65,-118.15,118889705.019357
37.65,-118.05,14403475.5567599
37.65,-117.95,0
37.65,-117.85,0
37.65,-117.75,0
37.65,-117.65,0
37.65,-117.55,0
37.65,-117.45,0
37.65,-117.35,0
37.65,-117.25,0
37.65,-117.15,0
37.65,-117.05,0
37.65,-116.95,0
37.75,-122.95,0
37.75,-122.85,0
37.75,-122.75,0
37.75,-122.65,0
37.75,-122.55,0
37.75,-122.45,0
37.75,-122.35,0
37.75,-122.25,0
37.75,-122.15,0
37.75,-122.05,0
37.75,-121.95,0
37.75,-121.85,0
37.75,-121.75,0
37.75,-121.65,0
37.75,-121.55,0
37.75,-121.45,0
37.75,-121.35,0
37.75,-121.25,0
37.75,-121.15,0
37.75,-121.05,0
37.75,-120.95,0
37.75,-120.85,0
37.75,-120.75,0
37.75,-120.65,0
37.75,-120.55,88709732.4171267
37.75,-120.45,122997813.310129
37.75,-120.35,119581207.384848
37.75,-120.25,122997813.310129
37.75,-120.15,119581207.384848
37.75,-120.05,119581207.384817
37.75,-119.95,122997813.310129
37.75,-119.85,119581207.384848
37.75,-119.75,122997813.310129
37.75,-119.65,119581207.384848
37.75,-119.55,122997813.310129
37.75,-119.45,119581207.384848
37.75,-119.35,122997813.310098
37.75,-119.25,119581207.384848
37.75,-119.15,122997813.310129
37.75,-119.05,119581207.384848
37.75,-118.95,122997813.310129
37.75,-118.85,119581207.384848
37.75,-118.75,119581207.384848
37.75,-118.65,122997813.310129
37.75,-118.55,119581207.384848
37.75,-118.45,122997813.310129
37.75,-118.35,119581207.384848
37.75,-118.25,122997813.310129
37.75,-118.15,88099624.2161836
37.75,-118.05,0
37.75,-117.95,0
37.75,-117.85,0
37.75,-117.75,0
37.75,-117.65,0
37.75,-117.55,0
37.75,-117.45,0
37.75,-117.35,0
37.75,-117.25,0
37.75,-117.15,0
37.75,-117.05,0
37.75,-116.95,0
37.85,-122.95,0
37.85,-122.85,0
37.85,-122.75,0
37.85,-122.65,0
37.85,-122.55,0
37.85,-122.45,0
37.85,-122.35,0
37.85,-122.25,0
37.85,-122.15,0
37.85,-122.05,0
37.85,-121.95,0
37.85,-121.85,0
37.85,-121.75,0
37.85,-121.65,0
37.85,-121.55,0
37.85,-121.45,0
37.85,-121.35,0
37.85,-121.25,0
37.85,-121.15,0
37.85,-121.05,0
37.85,-120.95,0
37.85,-120.85,0
37.85,-120.75,0
37.85,-120.65,29884991.3425595
37.85,-120.55,119539965.370238
37.85,-120.45,122955392.952245
37.85,-120.35,119539965.370238
37.85,-120.25,122955392.952245
37.85,-120.15,119539965.370238
37.85,-120.05,119539965.370208
37.85,-119.95,122955392.952245
37.85,-119.85,119539965.370238
37.85,-119.75,122955392.952245
37.85,-119.65,119539965.370238
37.85,-119.55,122955392.952245
37.85,-119.45,119539965.370238
37.85,-119.35,122955392.952213
37.85,-119.25,119539965.370238
37.85,-119.15,122955392.952245
37.85,-119.05,119539965.370238
37.85,-118.95,122955392.952245
37.85,-118.85,119539965.370238
37.85,-118.75,119539965.370238
37.85,-118.65,122955392.952245
37.85,-118.55,119539965.370238
37.85,-118.45,122955392.952245
37.85,-118.35,119539965.370238
37.85,-118.25,122955392.952245
37.85,-118.15,43302742.5575862
37.85,-118.05,0
37.85,-117.95,0
37.85,-117.85,0
37.85,-117.75,0
37.85,-117.65,0
37.85,-117.55,0
37.85,-117.45,0
37.85,-117.35,0
37.85,-117.25,0
37.85,-117.15,0
37.85,-117.05,0
37.85,-116.95,0
37.95,-122.95,0
37.95,-122.85,0
37.95,-122.75,0
37.95,-122.65,0
37.95,-122.55,0
37.95,-122.45,0
37.95,-122.35,0
37.95,-122.25,0
37.95,-122.15,0
37.95,-122.05,0
37.95,-121.95,0
37.95,-121.85,0
37.95,-121.75,0
37.95,-121.65,0
37.95,-121.55,0
37.95,-121.45,0
37.95,-121.35,0
37.95,-121.25,0
37.95,-121.15,0
37.95,-121.05,0
37.95,-120.95,0
37.95,-120.85,0
37.95,-120.75,0
37.95,-120.65,90843140.4252733
37.95,-120.55,119498359.217138
37.95,-120.45,122912598.051913
37.95,-120.35,119498359.217138
37.95,-120.25,122912598.051913
37.95,-120.15,119498359.217138
37.95,-120.05,119498359.217108
37.95,-119.95,122912598.051913
37.95,-119.85,119498359.217138
37.95,-119.75,122912598.051913
37.95,-119.65,119498359.217138
37.95,-119.55,122912598.051913
37.95,-119.45,119498359.217138
37.95,-119.35,122912598.051882
37.95,-119.25,119498359.217138
37.95,-119.15,122912598.051913
37.95,-119.05,119498359.217138
37.95,-118.95,122912598.051913
37.95,-118.85,119498359.217138
37.95,-118.75,119498359.217138
37.95,-118.65,122912598.051913
37.95,-118.55,119498359.217138
37.95,-118.45,122912598.051913
37.95,-118.35,119498359.217138
37.95,-118.25,116327994.584847
37.95,-118.15,4755546.94843712
37.95,-118.05,0
37.95,-117.95,0
37.95,-117.85,0
37.95,-117.75,0
37.95,-117.65,0
37.95,-117.55,0
37.95,-117.45,0
37.95,-117.35,0
37.95,-117.25,0
37.95,-117.15,0
37.95,-117.05,0
37.95,-116.95,0
38.05,-122.95,0
38.05,-122.85,0
38.05,-122.75,0
38.05,-122.65,0
38.05,-122.55,0
38.05,-122.45,0
38.05,-122.35,0
38.05,-122.25,0
38.05,-122.15,0
38.05,-122.05,0
38.05,-121.95,0
38.05,-121.85,0
38.05,-121.75,0
38.05,-121.65,0
38.05,-121.55,0
38.05,-121.45,0
38.05,-121.35,0
38.05,-121.25,0
38.05,-121.15,0
38.05,-121.05,0
38.05,-120.95,0
38.05,-120.85,0
38.05,-120.75,30839251.4594239
38.05,-120.65,127257622.623045
38.05,-120.55,123722688.661294
38.05,-120.45,127257622.623045
38.05,-120.35,123722688.661294
38.05,-120.25,127257622.623045
38.05,-120.15,123722688.661294
38.05,-120.05,123722688.661262
38.05,-119.95,127257622.623045
38.05,-119.85,123722688.661294
38.05,-119.75,127257622.623045
38.05,-119.65,123722688.661294
38.05,-119.55,127257622.623045
38.05,-119.45,123722688.661294
38.05,-119.35,127257622.623013
38.05,-119.25,123722688.661294
38.05,-119.15,127257622.623045
38.05,-119.05,123722688.661294
38.05,-118.95,127257622.623045
38.05,-118.85,123722688.661294
38.05,-118.75,123722688.661294
38.05,-118.65,127257622.623045
38.05,-118.55,123722688.661294
38.05,-118.45,127257622.623045
38.05,-118.35,123722688.661294
38.05,-118.25,78012335.7076138
38.05,-118.15,0
38.05,-118.05,0
38.05,-117.95,0
38.05,-117.85,0
38.05,-117.75,0
38.05,-117.65,0
38.05,-117.55,0
38.05,-117.45,0
38.05,-117.35,0
38.05,-117.25,0
38.05,-117.15,0
38.05,-117.05,0
38.05,-116.95,0
38.15,-122.95,0
38.15,-122.85,0
38.15,-122.75,0
38.15,-122.65,0
38.15,-122.55,0
38.15,-122.45,0
38.15,-122.35,0
38.15,-122.25,0
38.15,-122.15,0
38.15,-122.05,0
38.15,-121.95,0
38.15,-121.85,0
38.15,-121.75,0
38.15,-121.65,0
38.15,-121.55,0
38.15,-121.45,0
38.15,-121.35,0
38.15,-121.25,0
38.15,-121.15,0
38.15,-121.05,0
38.15,-120.95,0
38.15,-120.85,121851.076531231
38.15,-120.75,91753860.6280403
38.15,-120.65,122825885.143481
38.15,-120.55,119414055.000606
38.15,-120.45,122825885.143481
38.15,-120.35,119414055.000606
38.15,-120.25,122825885.143481
38.15,-120.15,119414055.000606
38.15,-120.05,119414055.000576
38.15,-119.95,122825885.143481
38.15,-119.85,119414055.000606
38.15,-119.75,122825885.143481
38.15,-119.65,119414055.000606
38.15,-119.55,122825885.143481
38.15,-119.45,119414055.000606
38.15,-119.35,122825885.14345
38.15,-119.25,119414055.000606
38.15,-119.15,122825885.143481
38.15,-119.05,119414055.000606
38.15,-118.95,122825885.143481
38.15,-118.85,119414055.000606
38.15,-118.75,119414055.000606
38.15,-118.65,122825885.143481
38.15,-118.55,119414055.000606
38.15,-118.45,122825885.143481
38.15,-118.35,119414055.000606
38.15,-118.25,29731662.6736204
38.15,-118.15,0
38.15,-118.05,0
38.15,-117.95,0
38.15,-117.85,0
38.15,-117.75,0
38.15,-117.65,0
38.15,-117.55,0
38.15,-117.45,0
38.15,-117.35,0
38.15,-117.25,0
38.15,-117.15,0
38.15,-117.05,0
38.15,-116.95,0
38.25,-122.95,0
38.25,-122.85,0
38.25,-122.75,0
38.25,-122.65,0
38.25,-122.55,0
38.25,-122.45,0
38.25,-122.35,0
38.25,-122.25,0
38.25,-122.15,0
38.25,-122.05,0
38.25,-121.95,0
38.25,-121.85,0
38.25,-121.75,0
38.25,-121.65,0
38.25,-121.55,0
38.25,-121.45,0
38.25,-121.35,0
38.25,-121.25,0
38.25,-121.15,0
38.25,-121.05,0
38.25,-120.95,0
38.25,-120.85,33253449.5043084
38.25,-120.75,119371357.194984
38.25,-120.65,122781967.400523
38.25,-120.55,119371357.194953
38.25,-120.45,122781967.400523
38.25,-120.35,119371357.194953
38.25,-120.25,122781967.400523
38.25,-120.15,119371357.194953
38.25,-120.05,119371357.194923
38.25,-119.95,122781967.400523
38.25,-119.85,119371357.194953
38.25,-119.75,122781967.400523
38.25,-119.65,119371357.194953
38.25,-119.55,122781967.400523
38.25,-119.45,119371357.194953
38.25,-119.35,122781967.400492
38.25,-119.25,119371357.194953
38.25,-119.15,122781967.400523
38.25,-119.05,119371357.194953
38.25,-118.95,122781967.400523
38.25,-118.85,119371357.194953
38.25,-118.75,119371357.194953
38.25,-118.65,122781967.400523
38.25,-118.55,119371357.194953
38.25,-118.45,122781967.400523
38.25,-118.35,103658188.747862
38.25,-118.25,487230.029367156
38.25,-118.15,0
38.25,-118.05,0
38.25,-117.95,0
38.25,-117.85,0
38.25,-117.75,0
38.25,-117.65,0
38.25,-117.55,0
38.25,-117.45,0
38.25,-117.35,0
38.25,-117.25,0
38.25,-117.15,0
38.25,-117.05,0
38.25,-116.95,0
38.35,-122.95,0
38.35,-122.85,0
38.35,-122.75,0
38.35,-122.65,0
38.35,-122.55,0
38.35,-122.45,0
38.35,-122.35,0
38.35,-122.25,0
38.35,-122.15,0
38.35,-122.05,0
38.35,-121.95,0
38.35,-121.85,0
38.35,-121.75,0
38.35,-121.65,0
38.35,-121.55,0
38.35,-121.45,0
38.35,-121.35,0
38.35,-121.25,0
38.35,-121.15,0
38.35,-121.05,0
38.35,-120.95,0
38.35,-120.85,94123237.3710605
38.35,-120.75,119328295.76153
38.35,-120.65,122737675.6404
38.35,-120.55,119328295.7615
38.35,-120.45,122737675.6404
38.35,-120.35,119328295.7615
38.35,-120.25,122737675.6404
38.35,-120.15,119328295.7615
38.35,-120.05,119328295.761469
38.35,-119.95,122737675.6404
38.35,-119.85,119328295.7615
38.35,-119.75,122737675.6404
38.35,-119.65,119328295.7615
38.35,-119.55,122737675.6404
38.35,-119.45,119328295.7615
38.35,-119.35,122737675.640369
38.35,-119.25,119328295.7615
38.35,-119.15,122737675.6404
38.35,-119.05,119328295.7615
38.35,-118.95,122737675.6404
38.35,-118.85,119328295.7615
38.35,-118.75,119328295.7615
38.35,-118.65,122737675.6404
38.35,-118.55,119328295.7615
38.35,-118.45,122737675.6404
38.35,-118.35,59055330.045232
38.35,-118.25,0
38.35,-118.15,0
38.35,-118.05,0
38.35,-117.95,0
38.35,-117.85,0
38.35,-117.75,0
38.35,-117.65,0
38.35,-117.55,0
38.35,-117.45,0
38.35,-117.35,0
38.35,-117.25,0
38.35,-117.15,0
38.35,-117.05,0
38.35,-116.95,0
38.45,-122.95,0
38.45,-122.85,0
38.45,-122.75,0
38.45,-122.65,0
38.45,-122.55,0
38.45,-122.45,0
38.45,-122.35,0
38.45,-122.25,0
38.45,-122.15,0
38.45,-122.05,0
38.45,-121.95,0
38.45,-121.85,0
38.45,-121.75,0
38.45,-121.65,0
38.45,-121.55,0
38.45,-121.45,0
38.45,-121.35,0
38.45,-121.25,0
38.45,-121.15,0
38.45,-121.05,0
38.45,-120.95,32012164.3157445
38.45,-120.85,122693010.001028
38.45,-120.75,119284870.834364
38.45,-120.65,122693010.001028
38.45,-120.55,119284870.834333
38.45,-120.45,122693010.001028
38.45,-120.35,119284870.834333
38.45,-120.25,122693010.001028
38.45,-120.15,119284870.834333
38.45,-120.05,119284870.834303
38.45,-119.95,122693010.001028
38.45,-119.85,119284870.834333
38.45,-119.75,122693010.001028
38.45,-119.65,119284870.834333
38.45,-119.55,122693010.001028
38.45,-119.45,119284870.834333
38.45,-119.35,122693010.000997
38.45,-119.25,119284870.834333
38.45,-119.15,122693010.001028
38.45,-119.05,119284870.834333
38.45,-118.95,122693010.001028
38.45,-118.85,119284870.834333
38.45,-118.75,119284870.834333
38.45,-118.65,122693010.001028
38.45,-118.55,119284870.834333
38.45,-118.45,121962694.465308
38.45,-118.35,15093187.7382218
38.45,-118.25,0
38.45,-118.15,0
38.45,-118.05,0
38.45,-117.95,0
38.45,-117.85,0
38.45,-117.75,0
38.45,-117.65,0
38.45,-117.55,0
38.45,-117.45,0
38.45,-117.35,0
38.45,-117.25,0
38.45,-117.15,0
38.45,-117.05,0
38.45,-116.95,0
38.55,-122.95,0
38.55,-122.85,0
38.55,-122.75,0
38.55,-122.65,0
38.55,-122.55,0
38.55,-122.45,0
38.55,-122.35,0
38.55,-122.25,0
38.55,-122.15,0
38.55,-122.05,0
38.55,-121.95,0
38.55,-121.85,0
38.55,-121.75,0
38.55,-121.65,0
38.55,-121.55,0
38.55,-121.45,0
38.55,-121.35,0
38.55,-121.25,0
38.55,-121.15,0
38.55,-121.05,121674.574026295
38.55,-120.95,92716025.4080131
38.55,-120.85,122647970.618474
38.55,-120.75,119241082.545769
38.55,-120.65,122647970.618474
38.55,-120.55,119241082.545739
38.55,-120.45,122647970.618474
38.55,-120.35,119241082.545739
38.55,-120.25,122647970.618474
38.55,-120.15,119241082.545739
38.55,-120.05,119241082.545708
38.55,-119.95,122647970.618474
38.55,-119.85,119241082.545739
38.55,-119.75,122647970.618474
38.55,-119.65,119241082.545739
38.55,-119.55,122647970.618474
38.55,-119.45,119241082.545739
38.55,-119.35,122647970.618443
38.55,-119.25,119241082.545739
38.55,-119.15,122647970.618474
38.55,-119.05,119241082.545739
38.55,-118.95,122647970.618474
38.55,-118.85,119241082.545739
38.55,-118.75,119241082.545739
38.55,-118.65,122647970.618474
38.55,-118.55,119241082.545739
38.55,-118.45,91985977.9638555
38.55,-118.35,0
38.55,-118.25,0
38.55,-118.15,0
38.55,-118.05,0
38.55,-117.95,0
38.55,-117.85,0
38.55,-117.75,0
38.55,-117.65,0
38.55,-117.55,0
38.55,-117.45,0
38.55,-117.35,0
38.55,-117.25,0
38.55,-117.15,0
38.55,-117.05,0
38.55,-116.95,0
38.65,-122.95,0
38.65,-122.85,0
38.65,-122.75,0
38.65,-122.65,0
38.65,-122.55,0
38.65,-122.45,0
38.65,-122.35,0
38.65,-122.25,0
38.65,-122.15,0
38.65,-122.05,0
38.65,-121.95,0
38.65,-121.85,0
38.65,-121.75,0
38.65,-121.65,0
38.65,-121.55,0
38.65,-121.45,0
38.65,-121.35,0
38.65,-121.25,0
38.65,-121.15,0
38.65,-121.05,34177895.5289441
38.65,-120.95,119196931.026181
38.65,-120.85,122602557.626929
38.65,-120.75,119196931.026211
38.65,-120.65,122602557.626929
38.65,-120.55,119196931.026181
38.65,-120.45,122602557.626929
38.65,-120.35,119196931.026181
38.65,-120.25,122602557.626929
38.65,-120.15,119196931.026181
38.65,-120.05,119196931.02615
38.65,-119.95,122602557.626929
38.65,-119.85,119196931.026181
38.65,-119.75,122602557.626929
38.65,-119.65,119196931.026181
38.65,-119.55,122602557.626929
38.65,-119.45,119196931.026181
38.65,-119.35,122602557.626897
38.65,-119.25,119196931.026181
38.65,-119.15,122602557.626929
38.65,-119.05,119196931.026181
38.65,-118.95,122602557.626929
38.65,-118.85,119196931.026181
38.65,-118.75,119196931.026181
38.65,-118.65,122602557.626929
38.65,-118.55,119196931.026181
38.65,-118.45,47192254.3246511
38.65,-118.35,0
38.65,-118.25,0
38.65,-118.15,0
38.65,-118.05,0
38.65,-117.95,0
38.65,-117.85,0
38.65,-117.75,0
38.65,-117.65,0
38.65,-117.55,0
38.65,-117.45,0
38.65,-117.35,0
38.65,-117.25,0
38.65,-117.15,0
38.65,-117.05,0
38.65,-116.95,0
38.75,-122.95,0
38.75,-122.85,0
38.75,-122.75,0
38.75,-122.65,0
38.75,-122.55,0
38.75,-122.45,0
38.75,-122.35,0
38.75,-122.25,0
38.75,-122.15,0
38.75,-122.05,0
38.75,-121.95,0
38.75,-121.85,0
38.75,-121.75,0
38.75,-121.65,0
38.75,-121.55,0
38.75,-121.45,0
38.75,-121.35,0
38.75,-121.25,0
38.75,-121.15,0
38.75,-121.05,94835596.7369606
38.75,-120.95,119152416.413074
38.75,-120.85,122556771.167733
38.75,-120.75,119152416.413104
38.75,-120.65,122556771.167733
38.75,-120.55,119152416.413074
38.75,-120.45,122556771.167733
38.75,-120.35,119152416.413074
38.75,-120.25,122556771.167733
38.75,-120.15,119152416.413074
38.75,-120.05,119152416.413044
38.75,-119.95,122556771.167733
38.75,-119.85,119152416.413074
38.75,-119.75,122556771.167733
38.75,-119.65,119152416.413074
38.75,-119.55,122556771.167733
38.75,-119.45,119152416.413074
38.75,-119.35,122556771.167702
38.75,-119.25,119152416.413074
38.75,-119.15,122556771.167733
38.75,-119.05,119152416.413074
38.75,-118.95,122556771.167733
38.75,-118.85,119152416.413074
38.75,-118.75,119152416.413074
38.75,-118.65,122556771.167733
38.75,-118.55,114775388.871369
38.75,-118.45,6808709.50931852
38.75,-118.35,0
38.75,-118.25,0
38.75,-118.15,0
38.75,-118.05,0
38.75,-117.95,0
38.75,-117.85,0
38.75,-117.75,0
38.75,-117.65,0
38.75,-117.55,0
38.75,-117.45,0
38.75,-117.35,0
38.75,-117.25,0
38.75,-117.15,0
38.75,-117.05,0
38.75,-116.95,0
38.85,-122.95,0
38.85,-122.85,0
38.85,-122.75,0
38.85,-122.65,0
38.85,-122.55,0
38.85,-122.45,0
38.85,-122.35,0
38.85,-122.25,0
38.85,-122.15,0
38.85,-122.05,0
38.85,-121.95,0
38.85,-121.85,0
38.85,-121.75,0
38.85,-121.65,0
38.85,-121.55,0
38.85,-121.45,0
38.85,-121.35,0
38.85,-121.25,0
38.85,-121.15,32936880.6389636
38.85,-121.05,122510611.380383
38.85,-120.95,119107538.842009
38.85,-120.85,122510611.380352
38.85,-120.75,119107538.842039
38.85,-120.65,122510611.380352
38.85,-120.55,119107538.842009
38.85,-120.45,122510611.380352
38.85,-120.35,119107538.842009
38.85,-120.25,122510611.380352
38.85,-120.15,119107538.842009
38.85,-120.05,119107538.841978
38.85,-119.95,122510611.380352
38.85,-119.85,119107538.842009
38.85,-119.75,122510611.380352
38.85,-119.65,119107538.842009
38.85,-119.55,122510611.380352
38.85,-119.45,119107538.842009
38.85,-119.35,122510611.380321
38.85,-119.25,119107538.842009
38.85,-119.15,122510611.380352
38.85,-119.05,119107538.842009
38.85,-118.95,122510611.380352
38.85,-118.85,119107538.842009
38.85,-118.75,119107538.842009
38.85,-118.65,122510611.380352
38.85,-118.55,76690670.4176606
38.85,-118.45,0
38.85,-118.35,0
38.85,-118.25,0
38.85,-118.15,0
38.85,-118.05,0
38.85,-117.95,0
38.85,-117.85,0
38.85,-117.75,0
38.85,-117.65,0
38.85,-117.55,0
38.85,-117.45,0
38.85,-117.35,0
38.85,-117.25,0
38.85,-117.15,0
38.85,-117.05,0
38.85,-116.95,0
38.95,-122.95,0
38.95,-122.85,0
38.95,-122.75,0
38.95,-122.65,0
38.95,-122.55,0
38.95,-122.45,0
38.95,-122.35,0
38.95,-122.25,0
38.95,-122.15,0
38.95,-122.05,0
38.95,-121.95,0
38.95,-121.85,0
38.95,-121.75,0
38.95,-121.65,0
38.95,-121.55,0
38.95,-121.45,0
38.95,-121.35,0
38.95,-121.25,121492.141272233
38.95,-121.15,93427456.6383471
38.95,-121.05,122464078.402442
38.95,-120.95,119062298.446788
38.95,-120.85,122464078.402411
38.95,-120.75,119062298.446819
38.95,-120.65,122464078.402411
38.95,-120.55,119062298.446788
38.95,-120.45,122464078.402411
38.95,-120.35,119062298.446788
38.95,-120.25,122464078.402411
38.95,-120.15,119062298.446788
38.95,-120.05,119062298.446758
38.95,-119.95,122464078.402411
38.95,-119.85,119062298.446788
38.95,-119.75,122464078.402411
38.95,-119.65,119062298.446788
38.95,-119.55,122464078.402411
38.95,-119.45,119062298.446788
38.95,-119.35,122464078.40238
38.95,-119.25,119062298.446788
38.95,-119.15,122464078.402411
38.95,-119.05,119062298.446788
38.95,-118.95,122464078.402411
38.95,-118.85,119062298.446788
38.95,-118.75,119062298.446788
38.95,-118.65,122464078.402411
38.95,-118.55,31709448.8720528
38.95,-118.45,0
38.95,-118.35,0
38.95,-118.25,0
38.95,-118.15,0
38.95,-118.05,0
38.95,-117.95,0
38.95,-117.85,0
38.95,-117.75,0
38.95,-117.65,0
38.95,-117.55,0
38.95,-117.45,0
38.95,-117.35,0
38.95,-117.25,0
38.95,-117.15,0
38.95,-117.05,0
38.95,-116.95,0
39.05,-122.95,0
39.05,-122.85,0
39.05,-122.75,0
39.05,-122.65,0
39.05,-122.55,0
39.05,-122.45,0
39.05,-122.35,0
39.05,-122.25,0
39.05,-122.15,0
39.05,-122.05,0
39.05,-121.95,0
39.05,-121.85,0
39.05,-121.75,0
39.05,-121.65,0
39.05,-121.55,0
39.05,-121.45,0
39.05,-121.35,0
39.05,-121.25,35097780.5731307
39.05,-121.15,119016695.369094
39.05,-121.05,122417172.379671
39.05,-120.95,119016695.369094
39.05,-120.85,122417172.379639
39.05,-120.75,119016695.369124
39.05,-120.65,122417172.379639
39.05,-120.55,119016695.369094
39.05,-120.45,122417172.379639
39.05,-120.35,119016695.369094
39.05,-120.25,122417172.379639
39.05,-120.15,119016695.369094
39.05,-120.05,119016695.369064
39.05,-119.95,122417172.379639
39.05,-119.85,119016695.369094
39.05,-119.75,122417172.379639
39.05,-119.65,119016695.369094
39.05,-119.55,122417172.379639
39.05,-119.45,119016695.369094
39.05,-119.35,122417172.379608
39.05,-119.25,119016695.369094
39.05,-119.15,122417172.379639
39.05,-119.05,119016695.369094
39.05,-118.95,122417172.379639
39.05,-118.85,119016695.369094
39.05,-118.75,119016695.369094
39.05,-118.65,108450927.514899
39.05,-118.55,1093010.46767535
39.05,-118.45,0
39.05,-118.35,0
39.05,-118.25,0
39.05,-118.15,0
39.05,-118.05,0
39.05,-117.95,0
39.05,-117.85,0
39.05,-117.75,0
39.05,-117.65,0
39.05,-117.55,0
39.05,-117.45,0
39.05,-117.35,0
39.05,-117.25,0
39.05,-117.15,0
39.05,-117.05,0
39.05,-116.95,0
39.15,-122.95,0
39.15,-122.85,0
39.15,-122.75,0
39.15,-122.65,0
39.15,-122.55,0
39.15,-122.45,0
39.15,-122.35,0
39.15,-122.25,0
39.15,-122.15,0
39.15,-122.05,0
39.15,-121.95,0
39.15,-121.85,0
39.15,-121.75,0
39.15,-121.65,0
39.15,-121.55,0
39.15,-121.45,0
39.15,-121.35,121398.703820407
39.15,-121.25,95540779.9066357
39.15,-121.15,118970729.743968
39.15,-121.05,122369893.45097
39.15,-120.95,118970729.743968
39.15,-120.85,122369893.450939
39.15,-120.75,118970729.743999
39.15,-120.65,122369893.450939
39.15,-120.55,118970729.743968
39.15,-120.45,122369893.450939
39.15,-120.35,118970729.743968
39.15,-120.25,122369893.450939
39.15,-120.15,118970729.743968
39.15,-120.05,118970729.743938
39.15,-119.95,122369893.450939
39.15,-119.85,118970729.743968
39.15,-119.75,122369893.450939
39.15,-119.65,118970729.743968
39.15,-119.55,122369893.450939
39.15,-119.45,118970729.743968
39.15,-119.35,122369893.450908
39.15,-119.25,118970729.743968
39.15,-119.15,122369893.450939
39.15,-119.05,118970729.743968
39.15,-118.95,122369893.450939
39.15,-118.85,118970729.743968
39.15,-118.75,118970729.743968
39.15,-118.65,64826907.8400807
39.15,-118.55,0
39.15,-118.45,0
39.15,-118.35,0
39.15,-118.25,0
39.15,-118.15,0
39.15,-118.05,0
39.15,-117.95,0
39.15,-117.85,0
39.15,-117.75,0
39.15,-117.65,0
39.15,-117.55,0
39.15,-117.45,0
39.15,-117.35,0
39.15,-117.25,0
39.15,-117.15,0
39.15,-117.05,0
39.15,-116.95,0
39.25,-122.95,0
39.25,-122.85,0
39.25,-122.75,0
39.25,-122.65,0
39.25,-122.55,0
39.25,-122.45,0
39.25,-122.35,0
39.25,-122.25,0
39.25,-122.15,0
39.25,-122.05,0
39.25,-121.95,0
39.25,-121.85,0
39.25,-121.75,0
39.25,-121.65,0
39.25,-121.55,0
39.25,-121.45,0
39.25,-121.35,34099751.9201404
39.25,-121.25,122322241.763319
39.25,-121.15,118924401.714338
39.25,-121.05,122322241.763351
39.25,-120.95,118924401.714338
39.25,-120.85,122322241.763319
39.25,-120.75,118924401.714369
39.25,-120.65,122322241.763319
39.25,-120.55,118924401.714338
39.25,-120.45,122322241.763319
39.25,-120.35,118924401.714338
39.25,-120.25,122322241.763319
39.25,-120.15,118924401.714338
39.25,-120.05,118924401.714308
39.25,-119.95,122322241.763319
39.25,-119.85,118924401.714338
39.25,-119.75,122322241.763319
39.25,-119.65,118924401.714338
39.25,-119.55,122322241.763319
39.25,-119.45,118924401.714338
39.25,-119.35,122322241.763288
39.25,-119.25,118924401.714338
39.25,-119.15,122322241.763319
39.25,-119.05,118924401.714338
39.25,-118.95,122322241.763319
39.25,-118.85,118924401.714338
39.25,-118.75,118924401.714338
39.25,-118.65,19901634.5726036
39.25,-118.55,0
39.25,-118.45,0
39.25,-118.35,0
39.25,-118.25,0
39.25,-118.15,0
39.25,-118.05,0
39.25,-117.95,0
39.25,-117.85,0
39.25,-117.75,0
39.25,-117.65,0
39.25,-117.55,0
39.25,-117.45,0
39.25,-117.35,0
39.25,-117.25,0
39.25,-117.15,0
39.25,-117.05,0
39.25,-116.95,0
39.35,-122.95,0
39.35,-122.85,0
39.35,-122.75,0
39.35,-122.65,0
39.35,-122.55,0
39.35,-122.45,0
39.35,-122.35,0
39.35,-122.25,0
39.35,-122.15,0
39.35,-122.05,0
39.35,-121.95,0
39.35,-121.85,0
39.35,-121.75,0
39.35,-121.65,0
39.35,-121.55,0
39.35,-121.45,242607.574329226
39.35,-121.35,94374346.4140931
39.35,-121.25,122274217.46193
39.35,-121.15,118877711.421321
39.35,-121.05,122274217.461961
39.35,-120.95,118877711.421321
39.35,-120.85,122274217.46193
39.35,-120.75,118877711.421351
39.35,-120.65,122274217.46193
39.35,-120.55,118877711.421321
39.35,-120.45,122274217.46193
39.35,-120.35,118877711.421321
39.35,-120.25,122274217.46193
39.35,-120.15,118877711.421321
39.35,-120.05,118877711.421291
39.35,-119.95,122274217.46193
39.35,-119.85,118877711.421321
39.35,-119.75,122274217.46193
39.35,-119.65,118877711.421321
39.35,-119.55,122274217.46193
39.35,-119.45,118877711.421321
39.35,-119.35,122274217.461899
39.35,-119.25,118877711.421321
39.35,-119.15,122274217.46193
39.35,-119.05,118877711.421321
39.35,-118.95,122274217.46193
39.35,-118.85,118877711.421321
39.35,-118.75,94131738.8397398
39.35,-118.65,0
39.35,-118.55,0
39.35,-118.45,0
39.35,-118.35,0
39.35,-118.25,0
39.35,-118.15,0
39.35,-118.05,0
39.35,-117.95,0
39.35,-117.85,0
39.35,-117.75,0
39.35,-117.65,0
39.35,-117.55,0
39.35,-117.45,0
39.35,-117.35,0
39.35,-117.25,0
39.35,-117.15,0
39.35,-117.05,0
39.35,-116.95,0
39.45,-122.95,0
39.45,-122.85,0
39.45,-122.75,0
39.45,-122.65,0
39.45,-122.55,0
39.45,-122.45,0
39.45,-122.35,0
39.45,-122.25,0
39.45,-122.15,0
39.45,-122.05,0
39.45,-121.95,0
39.45,-121.85,0
39.45,-121.75,0
39.45,-121.65,0
39.45,-121.55,0
39.45,-121.45,36255476.5737438
39.45,-121.35,118830659.004274
39.45,-121.25,122225820.69008
39.45,-121.15,118830659.004244
39.45,-121.05,122225820.690111
39.45,-120.95,118830659.004244
39.45,-120.85,122225820.69008
39.45,-120.75,118830659.004274
39.45,-120.65,122225820.69008
39.45,-120.55,118830659.004244
39.45,-120.45,122225820.69008
39.45,-120.35,118830659.004244
39.45,-120.25,122225820.69008
39.45,-120.15,118830659.004244
39.45,-120.05,118830659.004214
39.45,-119.95,122225820.69008
39.45,-119.85,118830659.004244
39.45,-119.75,122225820.69008
39.45,-119.65,118830659.004244
39.45,-119.55,122225820.69008
39.45,-119.45,118830659.004244
39.45,-119.35,122225820.690048
39.45,-119.25,118830659.004244
39.45,-119.15,122225820.69008
39.45,-119.05,118830659.004244
39.45,-118.95,122225820.69008
39.45,-118.85,118830659.004244
39.45,-118.75,49351100.2191095
39.45,-118.65,0
39.45,-118.55,0
39.45,-118.45,0
39.45,-118.35,0
39.45,-118.25,0
39.45,-118.15,0
39.45,-118.05,0
39.45,-117.95,0
39.45,-117.85,0
39.45,-117.75,0
39.45,-117.65,0
39.45,-117.55,0
39.45,-117.45,0
39.45,-117.35,0
39.45,-117.25,0
39.45,-117.15,0
39.45,-117.05,0
39.45,-116.95,0
39.55,-122.95,0
39.55,-122.85,0
39.55,-122.75,0
39.55,-122.65,0
39.55,-122.55,0
39.55,-122.45,0
39.55,-122.35,0
39.55,-122.25,0
39.55,-122.15,0
39.55,-122.05,0
39.55,-121.95,0
39.55,-121.85,0
39.55,-121.75,0
39.55,-121.65,0
39.55,-121.55,484829.569837992
39.55,-121.45,96238669.6128414
39.55,-121.35,118783244.610338
39.55,-121.25,122177051.599174
39.55,-121.15,118783244.610308
39.55,-121.05,122177051.599205
39.55,-120.95,118783244.610308
39.55,-120.85,122177051.599174
39.55,-120.75,118783244.610338
39.55,-120.65,122177051.599174
39.55,-120.55,118783244.610308
39.55,-120.45,122177051.599174
39.55,-120.35,118783244.610308
39.55,-120.25,122177051.599174
39.55,-120.15,118783244.610308
39.55,-120.05,118783244.610278
39.55,-119.95,122177051.599174
39.55,-119.85,118783244.610308
39.55,-119.75,122177051.599174
39.55,-119.65,118783244.610308
39.55,-119.55,122177051.599174
39.55,-119.45,118783244.610308
39.55,-119.35,122177051.599143
39.55,-119.25,118783244.610308
39.55,-119.15,122177051.599174
39.55,-119.05,118783244.610308
39.55,-118.95,122177051.599174
39.55,-118.85,115268230.228983
39.55,-118.75,8120895.29478637
39.55,-118.65,0
39.55,-118.55,0
39.55,-118.45,0
39.55,-118.35,0
39.55,-118.25,0
39.55,-118.15,0
39.55,-118.05,0
39.55,-117.95,0
39.55,-117.85,0
39.55,-117.75,0
39.55,-117.65,0
39.55,-117.55,0
39.55,-117.45,0
39.55,-117.35,0
39.55,-117.25,0
39.55,-117.15,0
39.55,-117.05,0
39.55,-116.95,0
39.65,-122.95,0
39.65,-122.85,0
39.65,-122.75,0
39.65,-122.65,0
39.65,-122.55,0
39.65,-122.45,0
39.65,-122.35,0
39.65,-122.25,0
39.65,-122.15,0
39.65,-122.05,0
39.65,-121.95,0
39.65,-121.85,0
39.65,-121.75,0
39.65,-121.65,0
39.65,-121.55,38407289.2617171
39.65,-121.45,118735468.380072
39.65,-121.35,118735468.380102
39.65,-121.25,122127910.333788
39.65,-121.15,118735468.380072
39.65,-121.05,122127910.333819
39.65,-120.95,118735468.380072
39.65,-120.85,122127910.333788
39.65,-120.75,118735468.380102
39.65,-120.65,122127910.333788
39.65,-120.55,118735468.380072
39.65,-120.45,122127910.333788
39.65,-120.35,118735468.380072
39.65,-120.25,122127910.333788
39.65,-120.15,118735468.380072
39.65,-120.05,118735468.380042
39.65,-119.95,122127910.333788
39.65,-119.85,118735468.380072
39.65,-119.75,122127910.333788
39.65,-119.65,118735468.380072
39.65,-119.55,122127910.333788
39.65,-119.45,118735468.380072
39.65,-119.35,122127910.333757
39.65,-119.25,118735468.380072
39.65,-119.15,122127910.333788
39.65,-119.05,118735468.380072
39.65,-118.95,122127910.333788
39.65,-118.85,78874275.4239048
39.65,-118.75,0
39.65,-118.65,0
39.65,-118.55,0
39.65,-118.45,0
39.65,-118.35,0
39.65,-118.25,0
39.65,-118.15,0
39.65,-118.05,0
39.65,-117.95,0
39.65,-117.85,0
39.65,-117.75,0
39.65,-117.65,0
39.65,-117.55,0
39.65,-117.45,0
39.65,-117.35,0
39.65,-117.25,0
39.65,-117.15,0
39.65,-117.05,0
39.65,-116.95,0
39.75,-122.95,0
39.75,-122.85,0
39.75,-122.75,0
39.75,-122.65,0
39.75,-122.55,0
39.75,-122.45,0
39.75,-122.35,0
39.75,-122.25,0
39.75,-122.15,0
39.75,-122.05,0
39.75,-121.95,0
39.75,-121.85,0
39.75,-121.75,0
39.75,-121.65,363328.562638709
39.75,-121.55,98462040.47509
39.75,-121.45,118687330.461978
39.75,-121.35,118687330.462008
39.75,-121.25,122078397.046606
39.75,-121.15,118687330.461978
39.75,-121.05,122078397.046637
39.75,-120.95,118687330.461978
39.75,-120.85,122078397.046606
39.75,-120.75,118687330.462008
39.75,-120.65,122078397.046606
39.75,-120.55,118687330.461978
39.75,-120.45,122078397.046606
39.75,-120.35,118687330.461978
39.75,-120.25,122078397.046606
39.75,-120.15,118687330.461978
39.75,-120.05,118687330.461948
39.75,-119.95,122078397.046606
39.75,-119.85,118687330.461978
39.75,-119.75,122078397.046606
39.75,-119.65,118687330.461978
39.75,-119.55,122078397.046606
39.75,-119.45,118687330.461978
39.75,-119.35,122078397.046575
39.75,-119.25,118687330.461978
39.75,-119.15,122078397.046606
39.75,-119.05,118687330.461978
39.75,-118.95,122078397.046606
39.75,-118.85,34152884.8880386
39.75,-118.75,0
39.75,-118.65,0
39.75,-118.55,0
39.75,-118.45,0
39.75,-118.35,0
39.75,-118.25,0
39.75,-118.15,0
39.75,-118.05,0
39.75,-117.95,0
39.75,-117.85,0
39.75,-117.75,0
39.75,-117.65,0
39.75,-117.55,0
39.75,-117.45,0
39.75,-117.35,0
39.75,-117.25,0
39.75,-117.15,0
39.75,-117.05,0
39.75,-116.95,0
39.85,-122.95,0
39.85,-122.85,0
39.85,-122.75,0
39.85,-122.65,0
39.85,-122.55,0
39.85,-122.45,0
39.85,-122.35,0
39.85,-122.25,0
39.85,-122.15,0
39.85,-122.05,0
39.85,-121.95,0
39.85,-121.85,0
39.85,-121.75,0
39.85,-121.65,37165429.7120559
39.85,-121.55,122028511.888444
39.85,-121.45,118638831.002654
39.85,-121.35,118638831.002684
39.85,-121.25,122028511.888444
39.85,-121.15,118638831.002654
39.85,-121.05,122028511.888475
39.85,-120.95,118638831.002654
39.85,-120.85,122028511.888444
39.85,-120.75,118638831.002684
39.85,-120.65,122028511.888444
39.85,-120.55,118638831.002654
39.85,-120.45,122028511.888444
39.85,-120.35,118638831.002654
39.85,-120.25,122028511.888444
39.85,-120.15,118638831.002654
39.85,-120.05,118638831.002624
39.85,-119.95,122028511.888444
39.85,-119.85,118638831.002654
39.85,-119.75,122028511.888444
39.85,-119.65,118638831.002654
39.85,-119.55,122028511.888444
39.85,-119.45,118638831.002654
39.85,-119.35,122028511.888413
39.85,-119.25,118638831.002654
39.85,-119.15,122028511.888444
39.85,-119.05,118638831.002654
39.85,-118.95,109922508.724908
39.85,-118.85,1452720.37962433
39.85,-118.75,0
39.85,-118.65,0
39.85,-118.55,0
39.85,-118.45,0
39.85,-118.35,0
39.85,-118.25,0
39.85,-118.15,0
39.85,-118.05,0
39.85,-117.95,0
39.85,-117.85,0
39.85,-117.75,0
39.85,-117.65,0
39.85,-117.55,0
39.85,-117.45,0
39.85,-117.35,0
39.85,-117.25,0
39.85,-117.15,0
39.85,-117.05,0
39.85,-116.95,0
39.95,-122.95,0
39.95,-122.85,0
39.95,-122.75,0
39.95,-122.65,0
39.95,-122.55,0
39.95,-122.45,0
39.95,-122.35,0
39.95,-122.25,0
39.95,-122.15,0
39.95,-122.05,0
39.95,-121.95,0
39.95,-121.85,0
39.95,-121.75,605050.868096678
39.95,-121.65,96808138.8954684
39.95,-121.55,121978255.00829
39.95,-121.45,118589970.146949
39.95,-121.35,118589970.146979
39.95,-121.25,121978255.00829
39.95,-121.15,118589970.146949
39.95,-121.05,121978255.008321
39.95,-120.95,118589970.146949
39.95,-120.85,121978255.00829
39.95,-120.75,118589970.146979
39.95,-120.65,121978255.00829
39.95,-120.55,118589970.146949
39.95,-120.45,121978255.00829
39.95,-120.35,118589970.146949
39.95,-120.25,121978255.00829
39.95,-120.15,118589970.146949
39.95,-120.05,118589970.146919
39.95,-119.95,121978255.00829
39.95,-119.85,118589970.146949
39.95,-119.75,121978255.00829
39.95,-119.65,118589970.146949
39.95,-119.55,121978255.00829
39.95,-119.45,118589970.146949
39.95,-119.35,121978255.008259
39.95,-119.25,118589970.146949
39.95,-119.15,121978255.00829
39.95,-119.05,118589970.146949
39.95,-118.95,66797615.8378732
39.95,-118.85,0
39.95,-118.75,0
39.95,-118.65,0
39.95,-118.55,0
39.95,-118.45,0
39.95,-118.35,0
39.95,-118.25,0
39.95,-118.15,0
39.95,-118.05,0
39.95,-117.95,0
39.95,-117.85,0
39.95,-117.75,0
39.95,-117.65,0
39.95,-117.55,0
39.95,-117.45,0
39.95,-117.35,0
39.95,-117.25,0
39.95,-117.15,0
39.95,-117.05,0
39.95,-116.95,0
40.05,-122.95,0
40.05,-122.85,0
40.05,-122.75,0
40.05,-122.65,0
40.05,-122.55,0
40.05,-122.45,0
40.05,-122.35,0
40.05,-122.25,0
40.05,-122.15,0
40.05,-122.05,0
40.05,-121.95,0
40.05,-121.85,0
40.05,-121.75,39311982.7705525
40.05,-121.65,118540748.046589
40.05,-121.55,121927626.562206
40.05,-121.45,118540748.046589
40.05,-121.35,118540748.046619
40.05,-121.25,121927626.562206
40.05,-121.15,118540748.046589
40.05,-121.05,121927626.562237
40.05,-120.95,118540748.046589
40.05,-120.85,121927626.562206
40.05,-120.75,118540748.046619
40.05,-120.65,121927626.562206
40.05,-120.55,118540748.046589
40.05,-120.45,121927626.562206
40.05,-120.35,118540748.046589
40.05,-120.25,121927626.562206
40.05,-120.15,118540748.046589
40.05,-120.05,118540748.046559
40.05,-119.95,121927626.562206
40.05,-119.85,118540748.046589
40.05,-119.75,121927626.562206
40.05,-119.65,118540748.046589
40.05,-119.55,121927626.562206
40.05,-119.45,118540748.046589
40.05,-119.35,121927626.562175
40.05,-119.25,118540748.046589
40.05,-119.15,121927626.562206
40.05,-119.05,118540748.046589
40.05,-118.95,22135670.2984957
40.05,-118.85,0
40.05,-118.75,0
40.05,-118.65,0
40.05,-118.55,0
40.05,-118.45,0
40.05,-118.35,0
40.05,-118.25,0
40.05,-118.15,0
40.05,-118.05,0
40.05,-117.95,0
40.05,-117.85,0
40.05,-117.75,0
40.05,-117.65,0
40.05,-117.55,0
40.05,-117.45,0
40.05,-117.35,0
40.05,-117.25,0
40.05,-117.15,0
40.05,-117.05,0
40.05,-116.95,0
40.15,-122.95,0
40.15,-122.85,0
40.15,-122.75,0
40.15,-122.65,0
40.15,-122.55,0
40.15,-122.45,0
40.15,-122.35,0
40.15,-122.25,0
40.15,-122.15,0
40.15,-122.05,0
40.15,-121.95,0
40.15,-121.85,483637.407557229
40.15,-121.75,99024759.1973427
40.15,-121.65,118491164.851521
40.15,-121.55,121876626.704422
40.15,-121.45,118491164.851521
40.15,-121.35,118491164.851551
40.15,-121.25,121876626.704422
40.15,-121.15,118491164.851521
40.15,-121.05,121876626.704453
40.15,-120.95,118491164.851521
40.15,-120.85,121876626.704422
40.15,-120.75,118491164.851551
40.15,-120.65,121876626.704422
40.15,-120.55,118491164.851521
40.15,-120.45,121876626.704422
40.15,-120.35,118491164.851521
40.15,-120.25,121876626.704422
40.15,-120.15,118491164.851521
40.15,-120.05,118491164.851491
40.15,-119.95,121876626.704422
40.15,-119.85,118491164.851521
40.15,-119.75,121876626.704422
40.15,-119.65,118491164.851521
40.15,-119.55,121876626.704422
40.15,-119.45,118491164.851521
40.15,-119.35,121876626.704391
40.15,-119.25,118491164.851521
40.15,-119.15,121876626.704422
40.15,-119.05,96122934.7519993
40.15,-118.95,0
40.15,-118.85,0
40.15,-118.75,0
40.15,-118.65,0
40.15,-118.55,0
40.15,-118.45,0
40.15,-118.35,0
40.15,-118.25,0
40.15,-118.15,0
40.15,-118.05,0
40.15,-117.95,0
40.15,-117.85,0
40.15,-117.75,0
40.15,-117.65,0
40.15,-117.55,0
40.15,-117.45,0
40.15,-117.35,0
40.15,-117.25,0
40.15,-117.15,0
40.15,-117.05,0
40.15,-116.95,0
40.25,-122.95,0
40.25,-122.85,0
40.25,-122.75,0
40.25,-122.65,0
40.25,-122.55,0
40.25,-122.45,0
40.25,-122.35,0
40.25,-122.25,0
40.25,-122.15,0
40.25,-122.05,0
40.25,-121.95,0
40.25,-121.85,38191250.7595143
40.25,-121.75,121825255.587311
40.25,-121.65,118441220.709886
40.25,-121.55,121825255.587311
40.25,-121.45,118441220.709886
40.25,-121.35,118441220.709916
40.25,-121.25,121825255.587311
40.25,-121.15,118441220.709886
40.25,-121.05,121825255.587342
40.25,-120.95,118441220.709886
40.25,-120.85,121825255.587311
40.25,-120.75,118441220.709916
40.25,-120.65,121825255.587311
40.25,-120.55,118441220.709886
40.25,-120.45,121825255.587311
40.25,-120.35,118441220.709886
40.25,-120.25,121825255.587311
40.25,-120.15,118441220.709886
40.25,-120.05,118441220.709856
40.25,-119.95,121825255.587311
40.25,-119.85,118441220.709886
40.25,-119.75,121825255.587311
40.25,-119.65,118441220.709886
40.25,-119.55,121825255.587311
40.25,-119.45,118441220.709886
40.25,-119.35,121825255.58728
40.25,-119.25,118441220.709886
40.25,-119.15,121825255.587311
40.25,-119.05,51606531.8807361
40.25,-118.95,0
40.25,-118.85,0
40.25,-118.75,0
40.25,-118.65,0
40.25,-118.55,0
40.25,-118.45,0
40.25,-118.35,0
40.25,-118.25,0
40.25,-118.15,0
40.25,-118.05,0
40.25,-117.95,0
40.25,-117.85,0
40.25,-117.75,0
40.25,-117.65,0
40.25,-117.55,0
40.25,-117.45,0
40.25,-117.35,0
40.25,-117.25,0
40.25,-117.15,0
40.25,-117.05,0
40.25,-116.95,0
40.35,-122.95,0
40.35,-122.85,0
40.35,-122.75,0
40.35,-122.65,0
40.35,-122.55,0
40.35,-122.45,0
40.35,-122.35,0
40.35,-122.25,0
40.35,-122.15,0
40.35,-122.05,0
40.35,-121.95,845649.398411983
40.35,-121.85,97732909.045042
40.35,-121.75,121773513.371326
40.35,-121.65,118390915.777678
40.35,-121.55,121773513.371326
40.35,-121.45,118390915.777678
40.35,-121.35,118390915.777708
40.35,-121.25,121773513.371326
40.35,-121.15,118390915.777678
40.35,-121.05,121773513.371357
40.35,-120.95,118390915.777678
40.35,-120.85,121773513.371326
40.35,-120.75,118390915.777708
40.35,-120.65,121773513.371326
40.35,-120.55,118390915.777678
40.35,-120.45,121773513.371326
40.35,-120.35,118390915.777678
40.35,-120.25,121773513.371326
40.35,-120.15,118390915.777678
40.35,-120.05,118390915.777648
40.35,-119.95,121773513.371326
40.35,-119.85,118390915.777678
40.35,-119.75,121773513.371326
40.35,-119.65,118390915.777678
40.35,-119.55,121773513.371326
40.35,-119.45,118390915.777678
40.35,-119.35,121773513.371295
40.35,-119.25,118390915.777678
40.35,-119.15,119236565.17609
40.35,-119.05,9543757.49636381
40.35,-118.95,0
40.35,-118.85,0
40.35,-118.75,0
40.35,-118.65,0
40.35,-118.55,0
40.35,-118.45,0
40.35,-118.35,0
40.35,-118.25,0
40.35,-118.15,0
40.35,-118.05,0
40.35,-117.95,0
40.35,-117.85,0
40.35,-117.75,0
40.35,-117.65,0
40.35,-117.55,0
40.35,-117.45,0
40.35,-117.35,0
40.35,-117.25,0
40.35,-117.15,0
40.35,-117.05,0
40.35,-116.95,0
40.45,-122.95,0
40.45,-122.85,0
40.45,-122.75,0
40.45,-122.65,0
40.45,-122.55,0
40.45,-122.45,0
40.45,-122.35,0
40.45,-122.25,0
40.45,-122.15,0
40.45,-122.05,0
40.45,-121.95,40453044.7126891
40.45,-121.85,118340250.204284
40.45,-121.75,121721400.210121
40.45,-121.65,118340250.204284
40.45,-121.55,121721400.210121
40.45,-121.45,118340250.204284
40.45,-121.35,118340250.204315
40.45,-121.25,121721400.210121
40.45,-121.15,118340250.204284
40.45,-121.05,121721400.210152
40.45,-120.95,118340250.204284
40.45,-120.85,121721400.210121
40.45,-120.75,118340250.204315
40.45,-120.65,121721400.210121
40.45,-120.55,118340250.204284
40.45,-120.45,121721400.210121
40.45,-120.35,118340250.204284
40.45,-120.25,121721400.210121
40.45,-120.15,118340250.204284
40.45,-120.05,118340250.204254
40.45,-119.95,121721400.210121
40.45,-119.85,118340250.204284
40.45,-119.75,121721400.210121
40.45,-119.65,118340250.204284
40.45,-119.55,121721400.210121
40.45,-119.45,118340250.204284
40.45,-119.35,121721400.21009
40.45,-119.25,118340250.204284
40.45,-119.15,84045728.7165122
40.45,-119.05,0
40.45,-118.95,0
40.45,-118.85,0
40.45,-118.75,0
40.45,-118.65,0
40.45,-118.55,0
40.45,-118.45,0
40.45,-118.35,0
40.45,-118.25,0
40.45,-118.15,0
40.45,-118.05,0
40.45,-117.95,0
40.45,-117.85,0
40.45,-117.75,0
40.45,-117.65,0
40.45,-117.55,0
40.45,-117.45,0
40.45,-117.35,0
40.45,-117.25,0
40.45,-117.15,0
40.45,-117.05,0
40.45,-116.95,0
40.55,-122.95,0
40.55,-122.85,0
40.55,-122.75,0
40.55,-122.65,0
40.55,-122.55,0
40.55,-122.45,0
40.55,-122.35,0
40.55,-122.25,0
40.55,-122.15,0
40.55,-122.05,603516.44972922
40.55,-121.95,99942324.0751588
40.55,-121.85,118289224.146927
40.55,-121.75,121668916.265411
40.55,-121.65,118289224.146927
40.55,-121.55,121668916.265411
40.55,-121.45,118289224.146927
40.55,-121.35,118289224.146957
40.55,-121.25,121668916.265411
40.55,-121.15,118289224.146927
40.55,-121.05,121668916.265442
40.55,-120.95,118289224.146927
40.55,-120.85,121668916.265411
40.55,-120.75,118289224.146957
40.55,-120.65,121668916.265411
40.55,-120.55,118289224.146927
40.55,-120.45,121668916.265411
40.55,-120.35,118289224.146927
40.55,-120.25,121668916.265411
40.55,-120.15,118289224.146927
40.55,-120.05,118289224.146897
40.55,-119.95,121668916.265411
40.55,-119.85,118289224.146927
40.55,-119.75,121668916.265411
40.55,-119.65,118289224.146927
40.55,-119.55,121668916.265411
40.55,-119.45,118289224.146927
40.55,-119.35,121668916.26538
40.55,-119.25,118289224.146927
40.55,-119.15,39590679.1022368
40.55,-119.05,0
40.55,-118.95,0
40.55,-118.85,0
40.55,-118.75,0
40.55,-118.65,0
40.55,-118.55,0
40.55,-118.45,0
40.55,-118.35,0
40.55,-118.25,0
40.55,-118.15,0
40.55,-118.05,0
40.55,-117.95,0
40.55,-117.85,0
40.55,-117.75,0
40.55,-117.65,0
40.55,-117.55,0
40.55,-117.45,0
40.55,-117.35,0
40.55,-117.25,0
40.55,-117.15,0
40.55,-117.05,0
40.55,-116.95,0
40.65,-122.95,0
40.65,-122.85,0
40.65,-122.75,0
40.65,-122.65,0
40.65,-122.55,0
40.65,-122.45,0
40.65,-122.35,0
40.65,-122.25,0
40.65,-122.15,0
40.65,-122.05,39211527.8289168
40.65,-121.95,121616061.697071
40.65,-121.85,118237837.761042
40.65,-121.75,121616061.697071
40.65,-121.65,118237837.761042
40.65,-121.55,121616061.697071
40.65,-121.45,118237837.761042
40.65,-121.35,118237837.761072
40.65,-121.25,121616061.697071
40.65,-121.15,118237837.761042
40.65,-121.05,121616061.697102
40.65,-120.95,118237837.761042
40.65,-120.85,121616061.697071
40.65,-120.75,118237837.761072
40.65,-120.65,121616061.697071
40.65,-120.55,118237837.761042
40.65,-120.45,121616061.697071
40.65,-120.35,118237837.761042
40.65,-120.25,121616061.697071
40.65,-120.15,118237837.761042
40.65,-120.05,118237837.761011
40.65,-119.95,121616061.697071
40.65,-119.85,118237837.761042
40.65,-119.75,121616061.697071
40.65,-119.65,118237837.761042
40.65,-119.55,121616061.697071
40.65,-119.45,118237837.761042
40.65,-119.35,121616061.69704
40.65,-119.25,110033579.630684
40.65,-119.15,3498874.79088796
40.65,-119.05,0
40.65,-118.95,0
40.65,-118.85,0
40.65,-118.75,0
40.65,-118.65,0
40.65,-118.55,0
40.65,-118.45,0
40.65,-118.35,0
40.65,-118.25,0
40.65,-118.15,0
40.65,-118.05,0
40.65,-117.95,0
40.65,-117.85,0
40.65,-117.75,0
40.65,-117.65,0
40.65,-117.55,0
40.65,-117.45,0
40.65,-117.35,0
40.65,-117.25,0
40.65,-117.15,0
40.65,-117.05,0
40.65,-116.95,0
40.75,-122.95,0
40.75,-122.85,0
40.75,-122.75,0
40.75,-122.65,0
40.75,-122.55,0
40.75,-122.45,0
40.75,-122.35,0
40.75,-122.25,0
40.75,-122.15,1582599.97166147
40.75,-122.05,102508344.4084
40.75,-121.95,125904366.543964
40.75,-121.85,122407023.028854
40.75,-121.75,125904366.543964
40.75,-121.65,122407023.028854
40.75,-121.55,125904366.543964
40.75,-121.45,122407023.028854
40.75,-121.35,122407023.028885
40.75,-121.25,125904366.543964
40.75,-121.15,122407023.028854
40.75,-121.05,125904366.543996
40.75,-120.95,122407023.028854
40.75,-120.85,125904366.543964
40.75,-120.75,122407023.028885
40.75,-120.65,125904366.543964
40.75,-120.55,122407023.028854
40.75,-120.45,125904366.543964
40.75,-120.35,122407023.028854
40.75,-120.25,125904366.543964
40.75,-120.15,122407023.028854
40.75,-120.05,122407023.028822
40.75,-119.95,125904366.543964
40.75,-119.85,122407023.028854
40.75,-119.75,125904366.543964
40.75,-119.65,122407023.028854
40.75,-119.55,125904366.543964
40.75,-119.45,122407023.028854
40.75,-119.35,125904366.543932
40.75,-119.25,70549860.5634279
40.75,-119.15,0
40.75,-119.05,0
40.75,-118.95,0
40.75,-118.85,0
40.75,-118.75,0
40.75,-118.65,0
40.75,-118.55,0
40.75,-118.45,0
40.75,-118.35,0
40.75,-118.25,0
40.75,-118.15,0
40.75,-118.05,0
40.75,-117.95,0
40.75,-117.85,0
40.75,-117.75,0
40.75,-117.65,0
40.75,-117.55,0
40.75,-117.45,0
40.75,-117.35,0
40.75,-117.25,0
40.75,-117.15,0
40.75,-117.05,0
40.75,-116.95,0
40.85,-122.95,0
40.85,-122.85,0
40.85,-122.75,0
40.85,-122.65,0
40.85,-122.55,0
40.85,-122.45,0
40.85,-122.35,0
40.85,-122.25,0
40.85,-122.15,43928207.9610033
40.85,-122.05,118133984.626097
40.85,-121.95,121509241.329699
40.85,-121.85,118133984.626097
40.85,-121.75,121509241.329699
40.85,-121.65,118133984.626097
40.85,-121.55,121509241.329699
40.85,-121.45,118133984.626097
40.85,-121.35,118133984.626127
40.85,-121.25,121509241.329699
40.85,-121.15,118133984.626097
40.85,-121.05,121509241.32973
40.85,-120.95,118133984.626097
40.85,-120.85,121509241.329699
40.85,-120.75,118133984.626127
40.85,-120.65,121509241.329699
40.85,-120.55,118133984.626097
40.85,-120.45,121509241.329699
40.85,-120.35,118133984.626097
40.85,-120.25,121509241.329699
40.85,-120.15,118133984.626097
40.85,-120.05,118133984.626066
40.85,-119.95,121509241.329699
40.85,-119.85,118133984.626097
40.85,-119.75,121509241.329699
40.85,-119.65,118133984.626097
40.85,-119.55,121509241.329699
40.85,-119.45,118133984.626097
40.85,-119.35,121509241.329668
40.85,-119.25,22782982.7493186
40.85,-119.15,0
40.85,-119.05,0
40.85,-118.95,0
40.85,-118.85,0
40.85,-118.75,0
40.85,-118.65,0
40.85,-118.55,0
40.85,-118.45,0
40.85,-118.35,0
40.85,-118.25,0
40.85,-118.15,0
40.85,-118.05,0
40.85,-117.95,0
40.85,-117.85,0
40.85,-117.75,0
40.85,-117.65,0
40.85,-117.55,0
40.85,-117.45,0
40.85,-117.35,0
40.85,-117.25,0
40.85,-117.15,0
40.85,-117.05,0
40.85,-116.95,0
40.95,-122.95,0
40.95,-122.85,0
40.95,-122.75,0
40.95,-122.65,0
40.95,-122.55,0
40.95,-122.45,0
40.95,-122.35,0
40.95,-122.25,0
40.95,-122.15,6932952.35998523
40.95,-122.05,45666219.7911185
40.95,-121.95,91332439.582237
40.95,-121.85,117479061.467917
40.95,-121.75,121455275.856062
40.95,-121.65,118081518.193393
40.95,-121.55,121455275.856062
40.95,-121.45,118081518.193393
40.95,-121.35,118081518.193423
40.95,-121.25,121455275.856062
40.95,-121.15,118081518.193393
40.95,-121.05,121455275.856093
40.95,-120.95,118081518.193393
40.95,-120.85,121455275.856062
40.95,-120.75,118081518.193423
40.95,-120.65,121455275.856062
40.95,-120.55,118081518.193393
40.95,-120.45,121455275.856062
40.95,-120.35,118081518.193393
40.95,-120.25,121455275.856062
40.95,-120.15,118081518.193393
40.95,-120.05,118081518.193363
40.95,-119.95,121455275.856062
40.95,-119.85,118081518.193393
40.95,-119.75,121455275.856062
40.95,-119.65,118081518.193393
40.95,-119.55,121455275.856062
40.95,-119.45,118081518.193393
40.95,-119.35,99887325.0839778
40.95,-119.25,0
40.95,-119.15,0
40.95,-119.05,0
40.95,-118.95,0
40.95,-118.85,0
40.95,-118.75,0
40.95,-118.65,0
40.95,-118.55,0
40.95,-118.45,0
40.95,-118.35,0
40.95,-118.25,0
40.95,-118.15,0
40.95,-118.05,0
40.95,-117.95,0
40.95,-117.85,0
40.95,-117.75,0
40.95,-117.65,0
40.95,-117.55,0
40.95,-117.45,0
40.95,-117.35,0
40.95,-117.25,0
40.95,-117.15,0
40.95,-117.05,0
40.95,-116.95,0
41.05,-122.95,0
41.05,-122.85,0
41.05,-122.75,0
41.05,-122.65,0
41.05,-122.55,0
41.05,-122.45,0
41.05,-122.35,0
41.05,-122.25,0
41.05,-122.15,0
41.05,-122.05,0
41.05,-121.95,0
41.05,-121.85,14452492.9059025
41.05,-121.75,58893908.5915528
41.05,-121.65,100203950.814257
41.05,-121.55,121400940.409581
41.05,-121.45,118028692.064871
41.05,-121.35,118028692.064901
41.05,-121.25,121400940.409581
41.05,-121.15,118028692.064871
41.05,-121.05,121400940.409612
41.05,-120.95,118028692.064871
41.05,-120.85,121400940.409581
41.05,-120.75,118028692.064901
41.05,-120.65,121400940.409581
41.05,-120.55,118028692.064871
41.05,-120.45,121400940.409581
41.05,-120.35,118028692.064871
41.05,-120.25,121400940.409581
41.05,-120.15,118028692.064871
41.05,-120.05,118028692.064841
41.05,-119.95,121400940.409581
41.05,-119.85,118028692.064871
41.05,-119.75,121400940.409581
41.05,-119.65,118028692.064871
41.05,-119.55,121400940.409581
41.05,-119.45,118028692.064871
41.05,-119.35,55401222.8059456
41.05,-119.25,0
41.05,-119.15,0
41.05,-119.05,0
41.05,-118.95,0
41.05,-118.85,0
41.05,-118.75,0
41.05,-118.65,0
41.05,-118.55,0
41.05,-118.45,0
41.05,-118.35,0
41.05,-118.25,0
41.05,-118.15,0
41.05,-118.05,0
41.05,-117.95,0
41.05,-117.85,0
41.05,-117.75,0
41.05,-117.65,0
41.05,-117.55,0
41.05,-117.45,0
41.05,-117.35,0
41.05,-117.25,0
41.05,-117.15,0
41.05,-117.05,0
41.05,-116.95,0
41.15,-122.95,0
41.15,-122.85,0
41.15,-122.75,0
41.15,-122.65,0
41.15,-122.55,0
41.15,-122.45,0
41.15,-122.35,0
41.15,-122.25,0
41.15,-122.15,0
41.15,-122.05,0
41.15,-121.95,0
41.15,-121.85,0
41.15,-121.75,0
41.15,-121.65,120383.169797387
41.15,-121.55,26243531.0158303
41.15,-121.45,68618406.7845104
41.15,-121.35,108826385.496865
41.15,-121.25,121346235.155766
41.15,-121.15,117975506.401439
41.15,-121.05,121346235.155797
41.15,-120.95,117975506.401439
41.15,-120.85,121346235.155766
41.15,-120.75,117975506.401469
41.15,-120.65,121346235.155766
41.15,-120.55,117975506.401439
41.15,-120.45,121346235.155766
41.15,-120.35,117975506.401439
41.15,-120.25,121346235.155766
41.15,-120.15,117975506.401439
41.15,-120.05,117975506.401409
41.15,-119.95,121346235.155766
41.15,-119.85,117975506.401439
41.15,-119.75,121346235.155766
41.15,-119.65,117975506.401439
41.15,-119.55,121346235.155766
41.15,-119.45,116530908.36387
41.15,-119.35,12519849.658925
41.15,-119.25,0
41.15,-119.15,0
41.15,-119.05,0
41.15,-118.95,0
41.15,-118.85,0
41.15,-118.75,0
41.15,-118.65,0
41.15,-118.55,0
41.15,-118.45,0
41.15,-118.35,0
41.15,-118.25,0
41.15,-118.15,0
41.15,-118.05,0
41.15,-117.95,0
41.15,-117.85,0
41.15,-117.75,0
41.15,-117.65,0
41.15,-117.55,0
41.15,-117.45,0
41.15,-117.35,0
41.15,-117.25,0
41.15,-117.15,0
41.15,-117.05,0
41.15,-116.95,0
41.25,-122.95,0
41.25,-122.85,0
41.25,-122.75,0
41.25,-122.65,0
41.25,-122.55,0
41.25,-122.45,0
41.25,-122.35,0
41.25,-122.25,0
41.25,-122.15,0
41.25,-122.05,0
41.25,-121.95,0
41.25,-121.85,0
41.25,-121.75,0
41.25,-121.65,0
41.25,-121.55,0
41.25,-121.45,0
41.25,-121.35,2406570.64004632
41.25,-121.25,37542501.984713
41.25,-121.15,79537159.6535106
41.25,-121.05,117921961.36227
41.25,-120.95,117921961.36224
41.25,-120.85,121291160.258304
41.25,-120.75,117921961.36227
41.25,-120.65,121291160.258304
41.25,-120.55,117921961.36224
41.25,-120.45,121291160.258304
41.25,-120.35,117921961.36224
41.25,-120.25,121291160.258304
41.25,-120.15,117921961.36224
41.25,-120.05,117921961.36221
41.25,-119.95,121291160.258304
41.25,-119.85,117921961.36224
41.25,-119.75,121291160.258304
41.25,-119.65,117921961.36224
41.25,-119.55,121291160.258304
41.25,-119.45,84711286.5296089
41.25,-119.35,0
41.25,-119.25,0
41.25,-119.15,0
41.25,-119.05,0
41.25,-118.95,0
41.25,-118.85,0
41.25,-118.75,0
41.25,-118.65,0
41.25,-118.55,0
41.25,-118.45,0
41.25,-118.35,0
41.25,-118.25,0
41.25,-118.15,0
41.25,-118.05,0
41.25,-117.95,0
41.25,-117.85,0
41.25,-117.75,0
41.25,-117.65,0
41.25,-117.55,0
41.25,-117.45,0
41.25,-117.35,0
41.25,-117.25,0
41.25,-117.15,0
41.25,-117.05,0
41.25,-116.95,0
41.35,-122.95,0
41.35,-122.85,0
41.35,-122.75,0
41.35,-122.65,0
41.35,-122.55,0
41.35,-122.45,0
41.35,-122.35,0
41.35,-122.25,0
41.35,-122.15,0
41.35,-122.05,0
41.35,-121.95,0
41.35,-121.85,0
41.35,-121.75,0
41.35,-121.65,0
41.35,-121.55,0
41.35,-121.45,0
41.35,-121.35,0
41.35,-121.25,0
41.35,-121.15,0
41.35,-121.05,8298873.40899638
41.35,-120.95,47989137.5389669
41.35,-120.85,93693078.0522687
41.35,-120.75,117627510.057949
41.35,-120.65,121235715.887916
41.35,-120.55,117868057.113252
41.35,-120.45,121235715.887916
41.35,-120.35,117868057.113252
41.35,-120.25,121235715.887916
41.35,-120.15,117868057.113252
41.35,-120.05,117868057.113222
41.35,-119.95,121235715.887916
41.35,-119.85,117868057.113252
41.35,-119.75,121235715.887916
41.35,-119.65,117868057.113252
41.35,-119.55,121235715.887916
41.35,-119.45,40171358.2406389
41.35,-119.35,0
41.35,-119.25,0
41.35,-119.15,0
41.35,-119.05,0
41.35,-118.95,0
41.35,-118.85,0
41.35,-118.75,0
41.35,-118.65,0
41.35,-118.55,0
41.35,-118.45,0
41.35,-118.35,0
41.35,-118.25,0
41.35,-118.15,0
41.35,-118.05,0
41.35,-117.95,0
41.35,-117.85,0
41.35,-117.75,0
41.35,-117.65,0
41.35,-117.55,0
41.35,-117.45,0
41.35,-117.35,0
41.35,-117.25,0
41.35,-117.15,0
41.35,-117.05,0
41.35,-116.95,0
41.45,-122.95,0
41.45,-122.85,0
41.45,-122.75,0
41.45,-122.65,0
41.45,-122.55,0
41.45,-122.45,0
41.45,-122.35,0
41.45,-122.25,0
41.45,-122.15,0
41.45,-122.05,0
41.45,-121.95,0
41.45,-121.85,0
41.45,-121.75,0
41.45,-121.65,0
41.45,-121.55,0
41.45,-121.45,0
41.45,-121.35,0
41.45,-121.25,0
41.45,-121.15,0
41.45,-121.05,0
41.45,-120.95,0
41.45,-120.85,0
41.45,-120.75,16590105.6601859
41.45,-120.65,61191041.8915397
41.45,-120.55,102185433.414163
41.45,-120.45,121179902.213501
41.45,-120.35,117813793.818682
41.45,-120.25,121179902.213501
41.45,-120.15,117813793.818682
41.45,-120.05,117813793.818652
41.45,-119.95,121179902.213501
41.45,-119.85,117813793.818682
41.45,-119.75,121179902.213501
41.45,-119.65,117813793.818682
41.45,-119.55,113365722.011242
41.45,-119.45,3606544.70873515
41.45,-119.35,0
41.45,-119.25,0
41.45,-119.15,0
41.45,-119.05,0
41.45,-118.95,0
41.45,-118.85,0
41.45,-118.75,0
41.45,-118.65,0
41.45,-118.55,0
41.45,-118.45,0
41.45,-118.35,0
41.45,-118.25,0
41.45,-118.15,0
41.45,-118.05,0
41.45,-117.95,0
41.45,-117.85,0
41.45,-117.75,0
41.45,-117.65,0
41.45,-117.55,0
41.45,-117.45,0
41.45,-117.35,0
41.45,-117.25,0
41.45,-117.15,0
41.45,-117.05,0
41.45,-116.95,0
41.55,-122.95,0
41.55,-122.85,0
41.55,-122.75,0
41.55,-122.65,0
41.55,-122.55,0
41.55,-122.45,0
41.55,-122.35,0
41.55,-122.25,0
41.55,-122.15,0
41.55,-122.05,0
41.55,-121.95,0
41.55,-121.85,0
41.55,-121.75,0
41.55,-121.65,0
41.55,-121.55,0
41.55,-121.45,0
41.55,-121.35,0
41.55,-121.25,0
41.55,-121.15,0
41.55,-121.05,0
41.55,-120.95,0
41.55,-120.85,0
41.55,-120.75,0
41.55,-120.65,0
41.55,-120.55,360487.260125349
41.55,-120.45,28598655.9699443
41.55,-120.35,70895827.8246519
41.55,-120.25,113553486.939485
41.55,-120.15,117759171.640947
41.55,-120.05,117759171.640917
41.55,-119.95,121123719.402117
41.55,-119.85,117759171.640947
41.55,-119.75,121123719.402117
41.55,-119.65,117759171.640947
41.55,-119.55,72698264.1252786
41.55,-119.45,0
41.55,-119.35,0
41.55,-119.25,0
41.55,-119.15,0
41.55,-119.05,0
41.55,-118.95,0
41.55,-118.85,0
41.55,-118.75,0
41.55,-118.65,0
41.55,-118.55,0
41.55,-118.45,0
41.55,-118.35,0
41.55,-118.25,0
41.55,-118.15,0
41.55,-118.05,0
41.55,-117.95,0
41.55,-117.85,0
41.55,-117.75,0
41.55,-117.65,0
41.55,-117.55,0
41.55,-117.45,0
41.55,-117.35,0
41.55,-117.25,0
41.55,-117.15,0
41.55,-117.05,0
41.55,-116.95,0
41.65,-122.95,0
41.65,-122.85,0
41.65,-122.75,0
41.65,-122.65,0
41.65,-122.55,0
41.65,-122.45,0
41.65,-122.35,0
41.65,-122.25,0
41.65,-122.15,0
41.65,-122.05,0
41.65,-121.95,0
41.65,-121.85,0
41.65,-121.75,0
41.65,-121.65,0
41.65,-121.55,0
41.65,-121.45,0
41.65,-121.35,0
41.65,-121.25,0
41.65,-121.15,0
41.65,-121.05,0
41.65,-120.95,0
41.65,-120.85,0
41.65,-120.75,0
41.65,-120.65,0
41.65,-120.55,0
41.65,-120.45,0
41.65,-120.35,0
41.65,-120.25,3843402.14694748
41.65,-120.15,39274765.6891196
41.65,-120.05,81792401.9397052
41.65,-119.95,118665041.287003
41.65,-119.85,117704190.750267
41.65,-119.75,121067167.628846
41.65,-119.65,117704190.750267
41.65,-119.55,28465197.1508298
41.65,-119.45,0
41.65,-119.35,0
41.65,-119.25,0
41.65,-119.15,0
41.65,-119.05,0
41.65,-118.95,0
41.65,-118.85,0
41.65,-118.75,0
41.65,-118.65,0
41.65,-118.55,0
41.65,-118.45,0
41.65,-118.35,0
41.65,-118.25,0
41.65,-118.15,0
41.65,-118.05,0
41.65,-117.95,0
41.65,-117.85,0
41.65,-117.75,0
41.65,-117.65,0
41.65,-117.55,0
41.65,-117.45,0
41.65,-117.35,0
41.65,-117.25,0
41.65,-117.15,0
41.65,-117.05,0
41.65,-116.95,0
41.75,-122.95,0
41.75,-122.85,0
41.75,-122.75,0
41.75,-122.65,0
41.75,-122.55,0
41.75,-122.45,0
41.75,-122.35,0
41.75,-122.25,0
41.75,-122.15,0
41.75,-122.05,0
41.75,-121.95,0
41.75,-121.85,0
41.75,-121.75,0
41.75,-121.65,0
41.75,-121.55,0
41.75,-121.45,0
41.75,-121.35,0
41.75,-121.25,0
41.75,-121.15,0
41.75,-121.05,0
41.75,-120.95,0
41.75,-120.85,0
41.75,-120.75,0
41.75,-120.65,0
41.75,-120.55,0
41.75,-120.45,0
41.75,-120.35,0
41.75,-120.25,0
41.75,-120.15,0
41.75,-120.05,0
41.75,-119.95,9844087.55861619
41.75,-119.85,50300886.4275632
41.75,-119.75,95919828.7723699
41.75,-119.65,101322071.944781
41.75,-119.55,480199.393103229
41.75,-119.45,0
41.75,-119.35,0
41.75,-119.25,0
41.75,-119.15,0
41.75,-119.05,0
41.75,-118.95,0
41.75,-118.85,0
41.75,-118.75,0
41.75,-118.65,0
41.75,-118.55,0
41.75,-118.45,0
41.75,-118.35,0
41.75,-118.25,0
41.75,-118.15,0
41.75,-118.05,0
41.75,-117.95,0
41.75,-117.85,0
41.75,-117.75,0
41.75,-117.65,0
41.75,-117.55,0
41.75,-117.45,0
41.75,-117.35,0
41.75,-117.25,0
41.75,-117.15,0
41.75,-117.05,0
41.75,-116.95,0
41.85,-122.95,0
41.85,-122.85,0
41.85,-122.75,0
41.85,-122.65,0
41.85,-122.55,0
41.85,-122.45,0
41.85,-122.35,0
41.85,-122.25,0
41.85,-122.15,0
41.85,-122.05,0
41.85,-121.95,0
41.85,-121.85,0
41.85,-121.75,0
41.85,-121.65,0
41.85,-121.55,0
41.85,-121.45,0
41.85,-121.35,0
41.85,-121.25,0
41.85,-121.15,0
41.85,-121.05,0
41.85,-120.95,0
41.85,-120.85,0
41.85,-120.75,0
41.85,-120.65,0
41.85,-120.55,0
41.85,-120.45,0
41.85,-120.35,0
41.85,-120.25,0
41.85,-120.15,0
41.85,-120.05,0
41.85,-119.95,0
41.85,-119.85,0
41.85,-119.75,0
41.85,-119.65,7185450.80762621
41.85,-119.55,0
41.85,-119.45,0
41.85,-119.35,0
41.85,-119.25,0
41.85,-119.15,0
41.85,-119.05,0
41.85,-118.95,0
41.85,-118.85,0
41.85,-118.75,0
41.85,-118.65,0
41.85,-118.55,0
41.85,-118.45,0
41.85,-118.35,0
41.85,-118.25,0
41.85,-118.15,0
41.85,-118.05,0
41.85,-117.95,0
41.85,-117.85,0
41.85,-117.75,0
41.85,-117.65,0
41.85,-117.55,0
41.85,-117.45,0
41.85,-117.35,0
41.85,-117.25,0
41.85,-117.15,0
41.85,-117.05,0
41.85,-116.95,0
41.95,-122.95,0
41.95,-122.85,0
41.95,-122.75,0
41.95,-122.65,0
41.95,-122.55,0
41.95,-122.45,0
41.95,-122.35,0
41.95,-122.25,0
41.95,-122.15,0
41.95,-122.05,0
41.95,-121.95,0
41.95,-121.85,0
41.95,-121.75,0
41.95,-121.65,0
41.95,-121.55,0
41.95,-121.45,0
41.95,-121.35,0
41.95,-121.25,0
41.95,-121.15,0
41.95,-121.05,0
41.95,-120.95,0
41.95,-120.85,0
41.95,-120.75,0
41.95,-120.65,0
41.95,-120.55,0
41.95,-120.45,0
41.95,-120.35,0
41.95,-120.25,0
41.95,-120.15,0
41.95,-120.05,0
41.95,-119.95,0
41.95,-119.85,0
41.95,-119.75,0
41.95,-119.65,0
41.95,-119.55,0
41.95,-119.45,0
41.95,-119.35,0
41.95,-119.25,0
41.95,-119.15,0
41.95,-119.05,0
41.95,-118.95,0
41.95,-118.85,0
41.95,-118.75,0
41.95,-118.65,0
41.95,-118.55,0
41.95,-118.45,0
41.95,-118.35,0
41.95,-118.25,0
41.95,-118.15,0
41.95,-118.05,0
41.95,-117.95,0
41.95,-117.85,0
41.95,-117.75,0
41.95,-117.65,0
41.95,-117.55,0
41.95,-117.45,0
41.95,-117.35,0
41.95,-117.25,0
41.95,-117.15,0
41.95,-117.05,0
41.95,-116.95,0
42.05,-122.95,0
42.05,-122.85,0
42.05,-122.75,0
42.05,-122.65,0
42.05,-122.55,0
42.05,-122.45,0
42.05,-122.35,0
42.05,-122.25,0
42.05,-122.15,0
42.05,-122.05,0
42.05,-121.95,0
42.05,-121.85,0
42.05,-121.75,0
42.05,-121.65,0
42.05,-121.55,0
42.05,-121.45,0
42.05,-121.35,0
42.05,-121.25,0
42.05,-121.15,0
42.05,-121.05,0
42.05,-120.95,0
42.05,-120.85,0
42.05,-120.75,0
42.05,-120.65,0
42.05,-120.55,0
42.05,-120.45,0
42.05,-120.35,0
42.05,-120.25,0
42.05,-120.15,0
42.05,-120.05,0
42.05,-119.95,0
42.05,-119.85,0
42.05,-119.75,0
42.05,-119.65,0
42.05,-119.55,0
42.05,-119.45,0
42.05,-119.35,0
42.05,-119.25,0
42.05,-119.15,0
42.05,-119.05,0
42.05,-118.95,0
42.05,-118.85,0
42.05,-118.75,0
42.05,-118.65,0
42.05,-118.55,0
42.05,-118.45,0
42.05,-118.35,0
42.05,-118.25,0
42.05,-118.15,0
42.05,-118.05,0
42.05,-117.95,0
42.05,-117.85,0
42.05,-117.75,0
42.05,-117.65,0
42.05,-117.55,0
42.05,-117.45,0
42.05,-117.35,0
42.05,-117.25,0
42.05,-117.15,0
42.05,-117.05,0
42.05,-116.95,0
